{"version":"0.7.0","metadata":{"date":{"year":2026,"month":6,"day":9,"hour":1,"minute":54,"second":18},"loudness":-17.143990483132292,"gain":0.7953714741107366,"name":"[AMP] BE100DLX-HBE Tallica - BLEND","modeled_by":"2dor","gear_type":"amp_cab","gear_make":"Friedman BE 100","gear_model":"Friedman BE 100","tone_type":"T3K-Null","trainer":"TONE3000","input_level_dbu":18.995,"output_level_dbu":13.195},"architecture":"SlimmableContainer","config":{"submodels":[{"max_value":0.5,"model":{"version":"0.7.0","metadata":{"date":{"year":2026,"month":6,"day":9,"hour":1,"minute":54,"second":16},"loudness":-18.713334050026823,"gain":0.948481631420551},"architecture":"WaveNet","config":{"layers":[{"input_size":1,"condition_size":1,"head":{"out_channels":1,"kernel_size":16,"bias":true},"channels":3,"kernel_sizes":[6,6,6,6,6,6,6,6,6,6,6,6,6,6,15,15,6,6,6,6,6,6,6],"dilations":[1,3,7,17,41,101,239,1,3,7,17,41,101,239,1,13,1,3,7,17,41,101,239],"activation":[{"type":"LeakyReLU","negative_slope":0.01},{"type":"LeakyReLU","negative_slope":0.01},{"type":"LeakyReLU","negative_slope":0.01},{"type":"LeakyReLU","negative_slope":0.01},{"type":"LeakyReLU","negative_slope":0.01},{"type":"LeakyReLU","negative_slope":0.01},{"type":"LeakyReLU","negative_slope":0.01},{"type":"LeakyReLU","negative_slope":0.01},{"type":"LeakyReLU","negative_slope":0.01},{"type":"LeakyReLU","negative_slope":0.01},{"type":"LeakyReLU","negative_slope":0.01},{"type":"LeakyReLU","negative_slope":0.01},{"type":"LeakyReLU","negative_slope":0.01},{"type":"LeakyReLU","negative_slope":0.01},{"type":"LeakyReLU","negative_slope":0.01},{"type":"LeakyReLU","negative_slope":0.01},{"type":"LeakyReLU","negative_slope":0.01},{"type":"LeakyReLU","negative_slope":0.01},{"type":"LeakyReLU","negative_slope":0.01},{"type":"LeakyReLU","negative_slope":0.01},{"type":"LeakyReLU","negative_slope":0.01},{"type":"LeakyReLU","negative_slope":0.01},{"type":"LeakyReLU","negative_slope":0.01}],"bottleneck":3,"head1x1":{"active":false,"out_channels":1,"groups":1},"layer1x1":{"active":true,"groups":1},"groups_input":1,"groups_input_mixin":1,"conv_pre_film":{"active":false,"shift":true,"groups":1},"conv_post_film":{"active":false,"shift":true,"groups":1},"input_mixin_pre_film":{"active":false,"shift":true,"groups":1},"input_mixin_post_film":{"active":false,"shift":true,"groups":1},"activation_pre_film":{"active":false,"shift":true,"groups":1},"activation_post_film":{"active":false,"shift":true,"groups":1},"layer1x1_post_film":{"active":false,"shift":true,"groups":1},"head1x1_post_film":{"active":false,"shift":true,"groups":1},"gating_mode":["none","none","none","none","none","none","none","none","none","none","none","none","none","none","none","none","none","none","none","none","none","none","none"],"secondary_activation":[null,null,null,null,null,null,null,null,null,null,null,null,null,null,null,null,null,null,null,null,null,null,null],"slimmable":null}],"head":null,"head_scale":0.009955754974308666},"weights":[-0.9526755809783936,-0.42890113592147827,-0.7378271818161011,-0.5880247354507446,0.013108426705002785,0.9186080098152161,-0.5566296577453613,0.18409717082977295,0.055357858538627625,-0.5202289819717407,-0.03726399689912796,0.8928723335266113,-0.4732295572757721,-0.07088642567396164,0.06077319011092186,-0.5752518177032471,0.12947358191013336,0.8955574631690979,-0.19764210283756256,-0.12599079310894012,0.2052696943283081,0.11828545480966568,0.32472673058509827,-0.03961421921849251,-0.4062320590019226,-0.3498859405517578,-0.1849256008863449,0.1705695241689682,0.051352690905332565,0.007797107100486755,-0.26001402735710144,-0.5126606225967407,-0.14206013083457947,0.22029025852680206,0.1524217277765274,0.12695400416851044,-0.10351986438035965,-0.40028926730155945,-0.250131219625473,0.27924254536628723,0.02236858755350113,0.18987292051315308,-0.34232231974601746,-0.7609286308288574,-0.04886120930314064,0.20937497913837433,0.22518472373485565,0.09677353501319885,-0.27625125646591187,-0.466715931892395,0.026944871991872787,0.2117203325033188,0.14627811312675476,0.29777318239212036,-0.36492249369621277,-0.7265444993972778,-0.05996180325746536,-0.004000794142484665,-0.2903091311454773,0.18281160295009613,0.2082914113998413,0.6893377304077148,0.21145200729370117,0.536575973033905,0.8230090141296387,-0.7495193481445312,0.6947610974311829,0.3969046175479889,-0.15343458950519562,-1.2496801614761353,0.6027231216430664,-0.49712222814559937,0.15244841575622559,-0.30237850546836853,-0.09606093168258667,-0.02834477461874485,-0.05192433297634125,-0.03302457556128502,-0.08265890181064606,-0.06342044472694397,-0.4784507155418396,0.1911805272102356,-0.06081606075167656,-0.041900839656591415,-0.2861003577709198,-0.3487405776977539,-0.4773476719856262,0.1919039636850357,0.08044116944074631,0.0911010131239891,-0.11632871627807617,-0.08602143079042435,-0.41368743777275085,0.14648327231407166,0.3395870625972748,0.27563902735710144,0.36415767669677734,0.07941509038209915,-0.03079179674386978,-0.021494075655937195,-0.14367790520191193,-0.0006288635777309537,0.05404134467244148,-0.37317463755607605,-0.10424000024795532,-0.449090838432312,-0.6026155948638916,-0.4899779260158539,-0.3709816336631775,-0.7956419587135315,-0.12551169097423553,0.13692505657672882,0.08710967004299164,0.39710819721221924,-0.1962442398071289,0.2901964485645294,-0.5384817719459534,-0.16370615363121033,0.010100606828927994,-0.1247454360127449,-0.1353808343410492,-0.24690619111061096,-0.6160188317298889,0.1927253007888794,0.20847409963607788,0.4054381251335144,0.20460310578346252,0.24868430197238922,-0.25729358196258545,0.08640708774328232,0.3226883113384247,0.04458589851856232,0.12062034010887146,0.05356195569038391,1.1069191694259644,-0.7578573822975159,0.22266843914985657,-0.6202406287193298,0.20156292617321014,0.5051955580711365,-0.3404645323753357,-0.32742515206336975,-0.8253803849220276,-1.2016314268112183,0.4155700206756592,-0.23354946076869965,0.2359163463115692,0.024836482480168343,0.1953045278787613,0.15453918278217316,0.12503771483898163,0.3598926067352295,-0.4481254816055298,-0.7485535740852356,-0.8695312738418579,-0.9021963477134705,-0.8186071515083313,-0.6715333461761475,0.014892641454935074,0.11833106726408005,0.0829986184835434,0.11576466262340546,-0.00792711041867733,-0.13243064284324646,-0.4840937554836273,0.10928857326507568,0.09650444239377975,-0.2276713252067566,-0.5286427140235901,-0.663176417350769,0.8900269865989685,-0.3023497462272644,-0.5945839285850525,-0.17633254826068878,-0.12644155323505402,-0.16371197998523712,-0.015878230333328247,-0.11479826271533966,-0.37244731187820435,-0.3807699382305145,-0.32562094926834106,-0.5007347464561462,0.32465609908103943,-0.027201587334275246,-0.06509406119585037,-0.08569657802581787,0.2372571974992752,-0.06115478649735451,-0.4185054302215576,-0.16673211753368378,-0.10725029557943344,0.04107894375920296,-0.24536839127540588,-0.23346658051013947,-0.47796759009361267,0.15095311403274536,0.23365509510040283,0.13184261322021484,0.08712167292833328,0.18057353794574738,-0.6318002343177795,0.2935764789581299,-0.1059914380311966,0.099832683801651,-0.4235619008541107,-0.45332518219947815,-0.3607233166694641,-0.584588348865509,0.19940683245658875,0.8469406366348267,-0.340423047542572,0.027394529432058334,0.24359162151813507,-0.2882240116596222,0.6536845564842224,0.97965407371521,0.1847008615732193,0.16109918057918549,0.3440362215042114,0.010220232419669628,0.04211907833814621,0.19242507219314575,0.13016970455646515,0.023323051631450653,-0.2635367810726166,-0.15409965813159943,-0.18200889229774475,-0.2827330529689789,-0.16741421818733215,-0.23437254130840302,0.7390441298484802,0.03060038760304451,0.01506519690155983,-0.0846669152379036,-0.018195567652583122,0.0388946607708931,0.7740767002105713,-0.04549042508006096,-0.06759901344776154,-0.17397895455360413,0.040608108043670654,0.27399492263793945,0.10550307482481003,0.35543742775917053,0.1725359410047531,0.3017551898956299,0.10207156836986542,-0.0703083798289299,-0.42559269070625305,-0.032279614359140396,0.03154905512928963,0.07643385976552963,-0.05332683399319649,-0.1807089000940323,-0.89249187707901,0.025015002116560936,-0.02841823548078537,0.09122270345687866,0.10674763470888138,0.27960267663002014,-0.2831326425075531,-0.11930626630783081,0.08361777663230896,-0.19334200024604797,-0.4047759771347046,-0.4023832082748413,0.8537509441375732,-0.010324741713702679,-0.02048422396183014,-0.04646735638380051,-0.017827287316322327,-0.16556644439697266,0.5193943977355957,-0.08153288066387177,-0.2788838744163513,-0.04364784061908722,0.6885303258895874,-1.1289783716201782,0.3672947287559509,-0.3912356495857239,0.25306057929992676,0.006242937408387661,-0.2404714673757553,0.03501681238412857,0.2780854105949402,-0.5548913478851318,0.7459876537322998,-0.9549524188041687,-0.1470068097114563,0.006930898874998093,0.2527209520339966,0.10593189299106598,0.12940576672554016,0.13390353322029114,0.09674843400716782,0.005806407425552607,-0.08909303694963455,-0.08977167308330536,-0.1382303386926651,-0.2057875692844391,0.17199653387069702,0.162560373544693,-0.2496008574962616,-0.07595331966876984,-0.1085209995508194,-0.10008872300386429,-0.0931769534945488,-0.03245718777179718,-0.2744711637496948,0.04274589940905571,0.06405320018529892,0.10083117336034775,0.13958588242530823,0.17428086698055267,0.3825962245464325,-0.042027633637189865,-0.05087115615606308,-0.09932094812393188,-0.18950895965099335,-0.3365683853626251,0.5318675637245178,-0.03883858770132065,-0.04732954874634743,-0.07696006447076797,-0.10436771810054779,-0.0845150351524353,0.6829317212104797,-0.013319967314600945,-0.03428392484784126,-0.06645128130912781,-0.13848282396793365,0.01405947282910347,-0.45987269282341003,-0.021119114011526108,0.016839230433106422,0.08556650578975677,0.3210263252258301,0.3136677145957947,-0.22850024700164795,0.013093795627355576,0.04202805086970329,0.04744637757539749,0.01701338216662407,-0.017995400354266167,-0.6625450253486633,-0.20213599503040314,-0.1238003745675087,0.14920705556869507,-1.401378870010376,0.3931325078010559,-1.0628594160079956,-0.1978476643562317,-0.18628796935081482,0.42452242970466614,-1.0983778238296509,0.36307457089424133,0.2468651831150055,-0.31156307458877563,-0.8872630000114441,-1.124730110168457,0.001680575660429895,0.05576954782009125,0.17102813720703125,-0.02807249315083027,-0.03243878483772278,0.0016327856574207544,0.0405598059296608,-0.061489980667829514,-0.19021053612232208,-0.006058964412659407,0.014097693376243114,-0.047538649290800095,-0.16579805314540863,-0.061828795820474625,0.21462944149971008,0.017746448516845703,0.013979055918753147,0.03619041666388512,0.017549993470311165,0.047424010932445526,0.8901556134223938,-0.14712339639663696,-0.11262297630310059,-0.1792445033788681,-0.19630469381809235,-0.330463707447052,-0.319526731967926,-0.04714195802807808,0.011710837483406067,-0.000030179910027072765,0.14451327919960022,0.15840885043144226,0.15801669657230377,0.1603708565235138,0.29970452189445496,0.2732008099555969,0.2839032709598541,0.4588005244731903,-0.1063089668750763,-0.003982728347182274,0.006903279572725296,0.006657385267317295,0.010450638830661774,0.004846019204705954,-1.0082131624221802,0.008680393919348717,-0.00048448864254169166,-0.002642896492034197,-0.010070870630443096,-0.009176589548587799,0.2975635826587677,-0.004922925028949976,-0.008433941751718521,-0.006332821678370237,-0.005607051774859428,-0.013648626394569874,-0.41510796546936035,-0.2702072858810425,0.3515286445617676,-0.17008176445960999,-0.007713089697062969,-0.19140541553497314,-0.12665501236915588,0.18474604189395905,0.1568554788827896,0.9119590520858765,-0.7338157296180725,-0.5983491539955139,-0.06743469089269638,0.345917284488678,-0.10133830457925797,0.6155930161476135,-0.3874741792678833,0.009195437654852867,-0.3873535394668579,-0.1272760033607483,0.09858663380146027,-0.007307065650820732,0.2604283392429352,-0.017436819151043892,-0.2961636781692505,-0.11714009195566177,-0.16485244035720825,-0.17003896832466125,-0.3241002857685089,-0.3697410225868225,-0.20998509228229523,0.2073720544576645,0.11391466110944748,0.19850537180900574,0.10832972079515457,0.24801182746887207,-0.017279736697673798,-0.0063286735676229,-0.03443019092082977,-0.009458622895181179,-0.05821796879172325,-0.11389942467212677,0.1814882755279541,0.010256857611238956,0.04104166105389595,-0.02419406548142433,0.004758024588227272,-0.036722276359796524,-0.310488760471344,0.007608951069414616,0.05825861170887947,0.012508220970630646,0.02062002755701542,0.042606960982084274,0.8869988918304443,-0.10639352351427078,0.03177107125520706,-0.2314080446958542,-0.0670149177312851,-0.33500003814697266,0.4716046452522278,-0.16638928651809692,-0.07930097728967667,-0.018009895458817482,-0.046527694910764694,0.1315171867609024,-0.16496312618255615,0.07805962860584259,0.15745697915554047,0.19858132302761078,0.042838167399168015,0.0850914940237999,0.4762518107891083,-0.05899563804268837,-0.4466489851474762,-0.2662545144557953,0.538730800151825,-1.297093391418457,0.42092370986938477,0.09846998751163483,-0.1856512874364853,0.34170761704444885,-0.33788424730300903,-0.021249383687973022,-0.8336944580078125,-0.07931122928857803,-0.6946125626564026,-0.2945118844509125,0.22387683391571045,-0.17154699563980103,0.03280366584658623,-1.2878355979919434,-0.6096736788749695,-0.4069223999977112,0.18287666141986847,0.43512940406799316,0.2324305921792984,-0.11643490940332413,-0.054668325930833817,-0.1412806361913681,-0.10114582628011703,0.15818212926387787,-0.026555994525551796,-0.08945786207914352,-0.07512877136468887,0.20714308321475983,0.36458176374435425,0.6192312836647034,0.33761078119277954,0.029775099828839302,0.16233916580677032,0.1460912823677063,0.49072861671447754,0.5774398446083069,0.13639767467975616,0.11947501450777054,0.234318345785141,0.14623446762561798,0.19935791194438934,0.11212737113237381,-0.6100951433181763,-0.06457134336233139,0.00811320822685957,0.0596325546503067,0.06595999002456665,0.13877663016319275,-0.21712979674339294,0.29557526111602783,-0.663985013961792,0.31309956312179565,-0.41168078780174255,-0.760890007019043,-0.6443802714347839,0.14943106472492218,-0.042739927768707275,0.07180264592170715,-0.18203826248645782,-0.025415711104869843,-0.18872970342636108,0.07842299342155457,-0.3061102628707886,-0.005719891283661127,-0.033438730984926224,-0.39811134338378906,-0.13643422722816467,0.2157905399799347,0.018768057227134705,0.002172833075746894,-0.8786766529083252,-0.08077959716320038,1.1806936264038086,-0.27376922965049744,0.3734438717365265,-0.712361752986908,1.041276216506958,0.9402141571044922,0.06309324502944946,0.5571110248565674,-0.2017795890569687,-0.698548436164856,-0.053097836673259735,-0.2891794741153717,0.1485859751701355,-0.07205834239721298,-0.0013682376593351364,0.12878087162971497,-0.02515527792274952,0.11310053616762161,-0.13412469625473022,0.08798903226852417,0.05968272313475609,0.07926991581916809,-0.046225812286138535,0.08443687111139297,0.12272009253501892,-0.08167065680027008,-0.06993227452039719,-0.057640738785266876,-0.12546434998512268,-0.048462823033332825,0.7712315917015076,-0.13289231061935425,0.0956089198589325,-0.3062973618507385,0.8637319803237915,-0.3170890510082245,-0.4173893332481384,0.017015429213643074,0.1797971874475479,-0.30929189920425415,0.06301887333393097,0.17312344908714294,-0.021936574950814247,-0.0597340427339077,0.05817766860127449,0.06519122421741486,0.4551859498023987,-0.15949822962284088,-0.05497639253735542,-0.07728975266218185,-0.1543370634317398,-0.0435718409717083,0.1151752918958664,-0.20375235378742218,-0.14332404732704163,-0.186332106590271,0.06301265954971313,0.07723403722047806,-0.01323710847645998,0.11401055753231049,-0.020713908597826958,0.2917815148830414,-0.11129264533519745,0.0030972363892942667,0.353010892868042,-0.3982495665550232,0.4093528091907501,0.1385687291622162,0.022952817380428314,-0.20978592336177826,0.6320610642433167,-0.019928688183426857,0.6360856294631958,0.21040064096450806,0.4478921592235565,0.745036780834198,-0.04873350262641907,-0.47283095121383667,0.6761293411254883,-0.7963488101959229,-0.6969385147094727,0.06842726469039917,0.11406794935464859,0.21246162056922913,-0.015341110527515411,0.06207149103283882,-0.0743524506688118,0.0055929250083863735,0.09492266178131104,-0.24360695481300354,-0.34337371587753296,-0.04777101054787636,0.04291275888681412,0.0485835000872612,-0.11397121846675873,0.06386003643274307,-0.05157715827226639,0.0545857734978199,0.042458321899175644,-0.0223749577999115,0.1290680319070816,0.06362086534500122,-0.3977614641189575,0.054676927626132965,-0.023026537150144577,-0.0836699828505516,0.2922835946083069,0.5747196078300476,-0.1631549596786499,-0.014270281419157982,0.02642642706632614,0.08040577918291092,0.08640722185373306,0.3295959234237671,-0.44885435700416565,0.045719388872385025,0.09370633214712143,0.05520185828208923,-0.004955162759870291,-0.009271197952330112,-0.3158509135246277,0.2090436965227127,0.07229294627904892,-0.10044743120670319,0.23917622864246368,0.32270678877830505,0.4564507007598877,-0.04176931455731392,0.05570884421467781,0.1196131557226181,0.08334954082965851,0.37655967473983765,-0.3520863950252533,0.06773398071527481,0.20958638191223145,0.06947465986013412,0.09002368897199631,-0.17610932886600494,0.539192259311676,-0.4425925016403198,-0.2096523493528366,-0.2470112442970276,1.6677643060684204,-0.8670579791069031,-0.5622329115867615,0.18534821271896362,0.2188868373632431,-0.1743771880865097,0.16418316960334778,0.29712316393852234,0.1536654233932495,0.5523768663406372,0.31989628076553345,-0.3812694847583771,0.1842993199825287,0.16843771934509277,0.29990309476852417,0.019104141741991043,0.022709952667355537,-0.12658032774925232,-0.24606308341026306,-0.8112332820892334,0.01926111988723278,-0.14644074440002441,-0.05537973716855049,0.0076059759594500065,-0.08232337981462479,-0.21634843945503235,-0.4178353548049927,0.035721369087696075,-0.0588424950838089,-0.10213792324066162,-0.06626875698566437,-0.0017801335779950023,-0.06888989359140396,-0.09908940643072128,-0.15797168016433716,-0.2042330652475357,-0.19481118023395538,0.06726623326539993,0.06535071134567261,0.020099377259612083,0.09096188843250275,0.06450662016868591,0.08128523081541061,0.1578175127506256,-0.1358366459608078,0.00828764121979475,-0.025511469691991806,-0.038353390991687775,0.05698980391025543,0.44234517216682434,-0.02059772238135338,-0.06952739506959915,-0.1560146063566208,-0.2252778261899948,-0.29922574758529663,-0.42960405349731445,0.6649826169013977,0.04990009590983391,0.08228699117898941,0.08046555519104004,0.08309869468212128,0.18195343017578125,-0.17087315022945404,-0.04437418654561043,-0.07180753350257874,-0.09223996847867966,-0.1376219391822815,-0.20186744630336761,1.090977668762207,0.12098044902086258,0.012396709062159061,0.34066957235336304,0.5054941773414612,-0.8819928765296936,0.17756588757038116,-0.7630208134651184,-0.5690367817878723,0.4228163957595825,0.46409425139427185,0.3488112986087799,0.9814057946205139,0.4752434492111206,-0.05838853493332863,0.11728984862565994,0.21794742345809937,0.3312094211578369,-0.5458037853240967,0.0010505308164283633,-0.0008715782314538956,-0.007844739593565464,0.0007776047568768263,-0.012350795790553093,0.22576260566711426,0.002171317581087351,-0.002178223105147481,0.003340407507494092,-0.00400784844532609,0.0011755924206227064,0.6889371871948242,0.005116070620715618,0.00010122646926902235,-0.00027455613599158823,0.009266023524105549,-0.009071487933397293,-0.11597932875156403,0.0025136680342257023,0.01842012070119381,0.013401596806943417,0.025569727644324303,0.04134680703282356,-0.5429034233093262,-0.0018772046314552426,-0.0064691174775362015,0.003782771062105894,0.001861774129793048,-0.015505017712712288,-1.0139294862747192,-0.0019778346177190542,-0.022726425901055336,-0.031797293573617935,-0.020556407049298286,-0.03423699364066124,-0.16087351739406586,-0.026310347020626068,-0.04473051056265831,-0.07391107082366943,-0.11726683378219604,-0.3892088532447815,0.4890390634536743,0.03034038469195366,0.04806917533278465,0.07787656784057617,0.11136198788881302,0.23739314079284668,0.4329392910003662,-0.022878900170326233,-0.01378236897289753,-0.0202246755361557,-0.08295854181051254,-0.10428059101104736,1.2513481378555298,-0.5184972882270813,0.2396809458732605,0.005819340702146292,-0.21074576675891876,0.3466387689113617,-0.6953209042549133,-0.3602566421031952,0.3814629316329956,0.22975589334964752,-1.2744956016540527,0.6748239994049072,1.052640438079834,0.6845574378967285,0.09371048957109451,0.4784563481807709,-0.3918274939060211,0.2946830987930298,-0.3102394938468933,-0.11547895520925522,-0.1210537776350975,-0.17069077491760254,-0.11839418858289719,-0.03617151454091072,0.19356109201908112,-0.013079221360385418,0.018999570980668068,0.037747424095869064,0.02393345721065998,-0.0414564348757267,-0.015555344521999359,-0.0018221908248960972,0.027535850182175636,0.005202393047511578,0.04688083752989769,-0.16753894090652466,-0.14240993559360504,-0.015132038854062557,-0.055683884769678116,-0.020151088014245033,-0.05652985721826553,-0.2595232427120209,0.237361341714859,0.003288524691015482,0.030375946313142776,0.029859334230422974,0.013394149020314217,0.0944429561495781,-0.42697665095329285,0.010809927247464657,0.022050699219107628,-0.010218128561973572,0.010914793238043785,0.029828175902366638,-0.3186810314655304,-0.03147308528423309,0.28766733407974243,0.06430032849311829,0.1278514564037323,-0.2895158529281616,-0.007836024276912212,-0.04186512157320976,-0.15095461905002594,-0.20257118344306946,-0.2937454581260681,-0.4722564220428467,-0.052664607763290405,-0.1041991114616394,0.17253684997558594,-0.049407340586185455,-0.04379604756832123,-0.09933759272098541,-0.03679685294628143,0.05239745229482651,-0.0585399828851223,-0.07253578305244446,-0.279975563287735,0.1291312724351883,0.00922451913356781,-0.1281980723142624,-0.39641880989074707,0.12407564371824265,0.04086684435606003,0.10132738202810287,0.7355104088783264,0.15140904486179352,-0.2556123435497284,0.21960701048374176,-0.17362356185913086,-0.6076384782791138,0.3735957741737366,-0.43787744641304016,0.10646260529756546,-0.39987602829933167,-0.18452110886573792,0.08482124656438828,0.40693554282188416,-0.35447314381599426,0.006989714689552784,-0.12453081458806992,0.007488689385354519,-0.3455456495285034,-0.12374662607908249,0.16359378397464752,0.000913988274987787,0.19419987499713898,0.20675231516361237,0.28333356976509094,0.02921057492494583,-0.020328961312770844,-0.041269056499004364,-0.038915932178497314,-0.04556402191519737,-0.023724740371108055,-1.1172800064086914,0.019387437030673027,-0.024147339165210724,-0.016368884593248367,-0.025141920894384384,-0.03520766273140907,-1.4636913537979126,0.003469867864623666,0.0398460254073143,0.029242753982543945,0.050116196274757385,0.028055688366293907,-0.3704438805580139,-0.026331569999456406,-0.03031223826110363,-0.04394086077809334,-0.04888322576880455,-0.010552910156548023,-0.7251381874084473,-0.021333353593945503,-0.02066786400973797,-0.030142605304718018,-0.032130166888237,-0.053010325878858566,-1.0363690853118896,0.026310164481401443,0.03228882700204849,0.042117949575185776,0.054699286818504333,0.0322682224214077,-0.8219262361526489,-0.6790062189102173,0.3153364360332489,-0.4884994626045227,-0.22691817581653595,0.3865703046321869,0.2248484343290329,0.10274026542901993,-0.4548018276691437,-0.06719401478767395,0.36701327562332153,-1.4563586711883545,1.044020652770996,1.1625934839248657,-0.8781546354293823,1.227853536605835,0.15880978107452393,-0.1551814079284668,-0.6807159185409546,0.07726024836301804,0.09408658742904663,-0.01096467673778534,0.1082715094089508,0.1513015478849411,0.14605312049388885,0.3467038571834564,-0.03753330931067467,-0.3945583403110504,-0.5669376254081726,-0.24509917199611664,0.19749055802822113,0.23353822529315948,0.34439530968666077,0.313126802444458,0.08578271418809891,0.05972146987915039,0.0482281893491745,-0.015271035023033619,-0.015299038030207157,-0.1476552039384842,0.207365483045578,-0.045231543481349945,-0.6709232926368713,-0.7317422032356262,-0.3204691410064697,0.11632979661226273,0.01628164015710354,0.09463202953338623,-0.019302742555737495,-0.02661621756851673,-0.09586744010448456,-0.0956743061542511,-0.03841877728700638,0.06902363896369934,0.013718200847506523,-0.05746285244822502,-0.48870721459388733,-0.8265309929847717,-0.8362028002738953,-0.6055706143379211,-0.335770845413208,-0.16647674143314362,-0.1260913610458374,-0.190976083278656,0.19943968951702118,0.1358972042798996,0.16488146781921387,0.4683596193790436,0.21782471239566803,0.14553016424179077,-0.2517355680465698,-0.5482542514801025,-0.1816471517086029,0.06613461673259735,0.038942817598581314,-0.02520497888326645,0.20480234920978546,0.09446796029806137,-0.08360426872968674,0.19400672614574432,-0.16645164787769318,-0.08927270770072937,0.0642288327217102,-0.07633118331432343,-0.037152815610170364,-0.44027167558670044,-0.7332289218902588,-0.22790925204753876,0.09523013234138489,-0.015661537647247314,-0.12741194665431976,0.10308824479579926,-0.06595872342586517,-0.11945313215255737,-0.26128971576690674,-0.08716288954019547,-0.0531720295548439,-0.018605433404445648,0.014028649777173996,-0.2184859812259674,-0.5194191336631775,-0.49060842394828796,-0.3197397291660309,-0.18110767006874084,-0.020749015733599663,0.10630809515714645,0.02525438368320465,0.04080384597182274,0.031495582312345505,0.02926943264901638,0.0974198505282402,0.128317728638649,0.030619489029049873,0.039236802607774734,0.014487586915493011,0.08620070666074753,0.08526775240898132,0.28308987617492676,0.453583687543869,0.41506174206733704,0.3069653809070587,-0.33696234226226807,-0.8342592120170593,0.10567618161439896,0.2552575469017029,0.10091805458068848,0.18320946395397186,0.08403291553258896,0.1835322082042694,0.1396554708480835,0.06766224652528763,0.1386527717113495,-0.1041935384273529,-0.15782731771469116,-0.04862022399902344,-0.17241309583187103,-1.0957139730453491,-1.6064320802688599,-0.18698745965957642,-0.2536270022392273,-0.08527521789073944,-0.2527998089790344,-0.10804811120033264,-0.20648664236068726,-0.20617876946926117,-0.18539415299892426,0.03154992684721947,-0.10638697445392609,0.21360667049884796,-0.11965987086296082,-0.19963306188583374,-0.8577050566673279,-0.9281339645385742,-0.5721078515052795,-0.2541576027870178,0.42741554975509644,0.48868387937545776,0.23588523268699646,0.48015573620796204,0.004783661104738712,-0.8389026522636414,-0.3556180000305176,-0.6376543641090393,0.6082524657249451,0.5185474157333374,-0.8204616904258728,0.5520468354225159,-0.5242483615875244,-0.021224375814199448,-0.14032670855522156,0.17335332930088043,-0.278020977973938,0.02328282594680786,0.07183113694190979,-0.1573905646800995,-0.03567472845315933,0.056642163544893265,-0.10132059454917908,-0.06899695843458176,-0.27435848116874695,-0.21365898847579956,-0.21207194030284882,-0.027132906019687653,-0.14210641384124756,-0.038456376641988754,-0.22788265347480774,-0.06954193860292435,0.18064060807228088,0.04747123643755913,-0.05065242201089859,0.06664703041315079,0.007714385166764259,-0.11900539696216583,0.06727796792984009,-0.013551677577197552,-0.05985298007726669,0.11543601006269455,0.09890961647033691,0.22302190959453583,0.07466492056846619,-0.3098134696483612,0.2155570089817047,-0.007990827783942223,0.07978658378124237,0.08223335444927216,0.02349213883280754,-0.10772573947906494,0.16614893078804016,-0.0865911990404129,-0.04352413862943649,-0.10374303162097931,0.17679812014102936,-0.11557907611131668,0.08276017755270004,-0.32834357023239136,0.4836972951889038,-0.022713743150234222,0.08969850093126297,-0.13843239843845367,0.02984667383134365,0.06747905910015106,-0.036452967673540115,-0.06662264466285706,-0.058336131274700165,-0.28142955899238586,-0.14148828387260437,-0.08512051403522491,-0.21724148094654083,-0.3708317279815674,-0.3101823627948761,-0.09288375079631805,-0.24258917570114136,-0.13972900807857513,-0.014090871438384056,0.00014404505782295018,0.07686156779527664,-0.0005521756247617304,0.009064138866961002,0.14834773540496826,-0.2607108950614929,0.19721531867980957,0.052483778446912766,0.10192935168743134,0.08839499950408936,-0.004569861572235823,0.07019229978322983,-0.030523141846060753,0.1763329654932022,-0.0033827954903244972,-0.023186419159173965,-0.10776782035827637,-0.06541349738836288,-0.22063015401363373,-0.22685781121253967,0.17717617750167847,-0.15983231365680695,0.02292073890566826,-0.09296765923500061,-0.34655332565307617,0.3726259768009186,0.2619408667087555,0.41495373845100403,-0.3260902166366577,-0.28769201040267944,-0.1752786487340927,-0.2555926442146301,-0.019598031416535378,-0.09582336246967316,-0.5021476745605469,-0.034814465790987015,0.0380694754421711,0.09102516621351242,-0.06158759072422981,-0.11823281645774841,0.09748849272727966,-0.18271714448928833,-0.42160508036613464,-0.07520879805088043,0.11827179044485092,0.11774341017007828,0.1966952532529831,0.10096653550863266,0.06380216777324677,0.1491853892803192,-0.14558960497379303,0.23190294206142426,-0.07928134500980377,0.14488042891025543,0.09071396291255951,0.06678751111030579,-0.15795108675956726,-0.5334523320198059,0.14525821805000305,0.1476634442806244,-0.15994709730148315,0.041782446205616,-0.26006630063056946,0.047762978821992874,-0.0282656941562891,0.013641872443258762,-0.3166198134422302,-0.08425687253475189,-0.18932168185710907,-0.26904961466789246,-0.43020960688591003,-0.17312653362751007,0.12555432319641113,0.09276211261749268,0.014364944770932198,0.4245884418487549,0.2802305519580841,0.0664554089307785,-1.0726737976074219,-0.335252583026886,-0.3575443625450134,0.20719625055789948,0.000896529178135097,-0.3662661910057068,0.6039304137229919,0.4908953607082367,0.09588953852653503,0.5600502490997314,0.17715246975421906,0.239144429564476,-0.06294872611761093,-0.04921705275774002,-0.12212889641523361,-0.01329613383859396,0.060838524252176285,-0.11754115670919418,0.09187542647123337,-0.08344209939241409,0.026739392429590225,0.12548603117465973,0.022044887766242027,0.057351063936948776,0.022188959643244743,-0.04695689678192139,-0.020359385758638382,-0.13024598360061646,0.13458670675754547,-0.010670674964785576,-0.2006448358297348,0.1476239114999771,-0.07756335288286209,0.34503793716430664,-0.31302711367607117,-0.35050565004348755,-0.3908865749835968,0.10041811317205429,0.22940275073051453,0.40375375747680664,0.0004654162912629545,-0.08140569925308228,-0.27618107199668884,0.38530486822128296,0.18059761822223663,-0.31406423449516296,0.005165826063603163,-0.038940541446208954,0.028630239889025688,0.00994377676397562,0.17658670246601105,0.1356751173734665,-0.36023202538490295,0.04348160699009895,0.2752516567707062,-0.07588417083024979,-0.2134975641965866,-0.026462765410542488,0.13699251413345337,0.06623529642820358,-0.03564246743917465,-0.0387907400727272,0.3078693449497223,0.07912514358758926,-0.07381737977266312,-0.09465870261192322,-0.21058247983455658,0.15777058899402618,-0.52676922082901,0.00948765967041254,0.26835134625434875,-0.04554601386189461,-0.2951725721359253,-0.08932431787252426,0.367877721786499,-0.06560599058866501,0.02591819316148758,-0.34844091534614563,0.0068008494563400745,0.13153856992721558,0.4201655089855194,0.33351364731788635,0.38941702246665955,0.5758046507835388,0.1838756501674652,0.1253030002117157,-0.04876907542347908,-0.24768193066120148,-0.26553815603256226,-0.07697010040283203,0.21888242661952972,0.05577357858419418,-0.22454877197742462,0.17707732319831848,-0.25742000341415405,-0.4166783094406128,0.016937686130404472,-0.24387706816196442,0.11114746332168579,0.2787953019142151,0.19464173913002014,0.3666447699069977,-0.03171739727258682,0.03275659680366516,0.03329610079526901,0.07552896440029144,-0.100287064909935,0.10741912573575974,0.17950071394443512,0.07542016357183456,0.05014976114034653,-0.011040713638067245,0.028874477371573448,0.06013737618923187,0.8170575499534607,-0.17765900492668152,-0.2264627367258072,-0.16206182539463043,-0.3389416038990021,-0.30701446533203125,0.05481235682964325,-0.03580053523182869,-0.11595813930034637,0.029919279739260674,-0.0856364294886589,-0.08609643578529358,0.05321585759520531,-0.11103560775518417,0.20741567015647888,-0.11544009298086166,0.0678449273109436,0.0679091289639473,0.04132530838251114,-0.06693936884403229,0.0016962789231911302,0.04561477154493332,-0.08338913321495056,-0.11391132324934006,-0.10742038488388062,0.2716364860534668,0.26005804538726807,-0.04024527594447136,-0.13765600323677063,-1.467026710510254,-0.1188487783074379,-0.2869870066642761,-0.17468354105949402,-0.08177946507930756,-0.5745817422866821,-0.9425403475761414,-0.04701743274927139,0.699047327041626,-0.5528836846351624,0.07501582056283951,0.19462670385837555,0.1785704791545868,0.3244607150554657,-0.07896120846271515,-0.2506042420864105,0.016155177727341652,0.06396155059337616,-0.1401444375514984,-0.22127102315425873,-0.17849519848823547,0.03969702869653702,-0.17452703416347504,0.09626249223947525,0.011607815511524677,0.09524691849946976,-0.11037024855613708,0.02088472805917263,0.04742354527115822,-0.06186036393046379,-0.27029234170913696,0.6446781754493713,0.0414557047188282,0.084934763610363,0.25559374690055847,0.055232129991054535,-0.04591517522931099,-0.2725956439971924,0.014601819217205048,0.11181571334600449,0.24339906871318817,-0.14327961206436157,0.5393625497817993,-0.2708602249622345,-0.12232425063848495,0.0577089823782444,-0.10567916929721832,0.07775355875492096,-0.42680007219314575,-0.5803197026252747,0.0858977660536766,0.09511873871088028,0.04604068398475647,-0.06186072155833244,0.13192203640937805,0.13345757126808167,0.16681431233882904,-0.015224061906337738,0.1347161829471588,-0.03337140008807182,0.03043369948863983,-0.11118026077747345,0.11997205764055252,-0.09409525245428085,-0.008529317565262318,0.08842289447784424,0.20970812439918518,-0.539553701877594,-0.17425140738487244,0.4530174732208252,0.0010884113144129515,-0.3455147445201874,-0.5675895810127258,-0.4495301842689514,-0.00822968315333128,0.11611591279506683,0.05645688250660896,-0.4339049756526947,0.2236071676015854,0.5503404140472412,-0.8368447422981262,0.2799667716026306,0.9425305128097534,0.26869794726371765,0.470348060131073,0.9197407364845276,-0.31420302391052246,-0.02320561185479164,-0.35486018657684326,-0.06849253922700882,-0.06802619993686676,-0.24669359624385834,0.002515131374821067,0.15094910562038422,-0.016118744388222694,0.06747396290302277,0.04305124655365944,0.02189120277762413,0.05882783606648445,0.09445669502019882,0.13803313672542572,-0.00042634372948668897,0.1211479976773262,-0.2890281677246094,-0.045587800443172455,-0.46364936232566833,-0.029544411227107048,0.06212509796023369,-0.1827031522989273,-0.2412545531988144,-0.0030813287012279034,0.0210005734115839,0.16374343633651733,0.0739579126238823,-0.03761948272585869,0.1960507035255432,-0.27383872866630554,-0.06311718374490738,0.4983314573764801,0.08954302221536636,0.06260371208190918,0.028043054044246674,-0.13685430586338043,0.19516603648662567,-0.0001697579718893394,0.09461569786071777,0.12384169548749924,-0.08010516315698624,0.2787386476993561,0.2857302725315094,0.05556105449795723,0.23080173134803772,0.15429431200027466,-0.6754967570304871,0.45313939452171326,0.2326861470937729,0.20519345998764038,0.23910745978355408,-0.006242573261260986,0.5274465084075928,-0.4323277771472931,0.3032463490962982,0.4917669892311096,-0.15520510077476501,-0.11281520873308182,-0.4662652313709259,0.5870800614356995,0.34494084119796753,-1.046890377998352,-0.15838442742824554,-0.5300597548484802,0.6172601580619812,-0.7310179471969604,1.0890839099884033,0.12469407916069031,-0.3187820315361023,-0.19030292332172394,-0.0808221772313118,-0.06906262040138245,-0.1429682821035385,-0.03549358993768692,-0.14337994158267975,-0.19606497883796692,-0.12114812433719635,0.46518513560295105,0.18006719648838043,0.4383164346218109,0.1024877205491066,-0.011205269955098629,0.47304296493530273,0.02362988330423832,0.3244704604148865,0.06775618344545364,0.14800402522087097,0.16229143738746643,-0.1570737361907959,-0.004184612538665533,0.03420422971248627,-0.08322932571172714,0.08826886862516403,0.23708060383796692,-0.14178673923015594,0.5196757912635803,-0.2029617577791214,0.4403885304927826,-0.339601069688797,0.37211593985557556,-0.35057318210601807,0.08469951152801514,0.7685326933860779,-0.2170959711074829,0.5247154831886292,0.13377362489700317,0.09297437965869904,0.07442976534366608,0.033812977373600006,-0.003060971386730671,0.0445520244538784,0.11111380159854889,0.19281506538391113,-0.358695924282074,-0.11045019328594208,-0.04762468859553337,-0.1360996663570404,-0.23140817880630493,-0.2771538496017456,-0.15669308602809906,-0.07029134035110474,-0.11847566068172455,-0.09204981476068497,-0.024570392444729805,0.030101167038083076,-0.12232837826013565,0.20401746034622192,-0.014363066293299198,0.6897063255310059,-0.5688371062278748,0.012446296401321888,-1.6146259307861328,-1.8738409280776978,0.0003390681813471019,3.4383151531219482,0.4793701171875,0.029658103361725807,0.12968295812606812,4.249480724334717,-0.013921864330768585,-0.06939978897571564,0.03878995403647423,0.023873213678598404,0.7481492161750793,0.5449120402336121,0.9742230772972107,0.7706753015518188,0.167142853140831,0.32928550243377686,0.16685070097446442,-1.4492391347885132,-0.20607325434684753,-0.8594986200332642,0.34451770782470703,-0.3674660325050354,-2.260657548904419,0.10775169730186462,-1.2697497606277466,-0.8757763504981995,-0.5203337669372559,-0.31161853671073914,0.5715788006782532,-0.09091238677501678,0.4434950053691864,0.5034081339836121,0.8379113674163818,0.3145913779735565,-0.02985440008342266,-0.8229879140853882,-0.20523710548877716,-0.4681309759616852,-0.49430763721466064,-0.31199491024017334,-1.757673978805542,0.6067818999290466,-0.454470694065094,-0.475045770406723,-0.8560971617698669,-0.5915727615356445,0.3489203155040741,0.00030416823574341834,0.0771053209900856,-0.013604776933789253,0.24606195092201233,0.22651806473731995,-1.142065167427063,0.4073385000228882,-0.3443194627761841,0.06828999519348145,-0.5223538875579834,-0.2705332934856415,0.2558656334877014,-0.21827682852745056,0.247701957821846,0.23074392974376678,-0.15907078981399536,-0.21412290632724762,0.00021785862918477505,-0.0012248605489730835,-0.015653999522328377,0.009570186026394367,-0.005863329395651817,-0.01311852689832449,-0.05959012359380722,0.14843641221523285,0.4961701035499573,-1.1835401058197021,-0.9221674203872681,0.3773879110813141,0.2809426784515381,0.24444307386875153,-0.40360918641090393,-0.04041743651032448,0.002624510321766138,0.03124379925429821,0.8643878698348999,1.1902801990509033,0.1725042164325714,0.09457369893789291,0.18313513696193695,0.414212703704834,-0.030000939965248108,-0.00632123276591301,-0.8311886191368103,-1.8286042213439941,0.09333615005016327,-0.4347340762615204,-0.04438398778438568,0.5015665292739868,0.1387523114681244,0.10796933621168137,0.16484296321868896,-0.573993444442749,0.6440982818603516,0.5366908311843872,1.5026211738586426,0.5542498826980591,-0.210495263338089,0.6108986139297485,0.7310256958007812,1.3119703531265259,-2.302029848098755,0.5071583986282349,-0.1464342474937439,-0.5741926431655884,-0.319521427154541,0.19692593812942505,-0.266498863697052,0.4373835623264313,0.17038410902023315,-0.9040707349777222,-0.005558919161558151,-0.10546048730611801,0.8398545384407043,0.8587565422058105,-0.168276846408844,0.16705773770809174,0.1215832531452179,0.15020376443862915,-0.6326259970664978,1.7594717741012573,-0.21971438825130463,-0.6449423432350159,-0.4501880407333374,-0.7368321418762207,-1.003507137298584,-0.6320652365684509,-0.35065650939941406,0.01818675361573696,0.0001658475084695965,-0.00918998196721077,-0.006068664137274027,0.009369935840368271,-0.005846705753356218,-0.01299299020320177,0.4162098467350006,-0.00858832336962223,0.5327888131141663,0.11612158268690109,0.18631941080093384,-0.07476914674043655,-0.32249006628990173,-0.3899204134941101,-0.36959829926490784,-0.3457287847995758,0.4948616325855255,-0.35605674982070923,-0.01874735951423645,-0.026275817304849625,-0.010002129711210728,0.0050214556977152824,0.012903771363198757,0.0033458296675235033,-0.026323707774281502,-0.09402228146791458,-0.15898315608501434,-0.1844409853219986,-0.14588361978530884,-0.05920596793293953,0.03619925677776337,0.08848936855792999,0.0791163519024849,0.03556453809142113,-0.009666210040450096,-0.03946273401379585,-0.07668956369161606,-0.10386735945940018,-0.10251711308956146,-0.08161333203315735,-0.0499831847846508,-0.001944704563356936,0.0565040148794651,0.0952225774526596,0.09531651437282562,0.06116621196269989,0.025759665295481682,0.0021934467367827892,0.00032382068457081914,0.004056665580719709,-0.008715691044926643,0.0008192498935386539,0.0200671274214983,0.04320421814918518,0.039456747472286224,0.04280943050980568,0.04255300015211105,0.07251814752817154,0.11552738398313522,0.13463371992111206,0.11612493544816971,0.08998420089483261,0.08793038874864578,0.05759270489215851,0.02772032842040062,0.011395874433219433,-0.03253650665283203,0.009955754751780201],"sample_rate":48000}},{"max_value":1,"model":{"version":"0.7.0","metadata":{"date":{"year":2026,"month":6,"day":9,"hour":1,"minute":54,"second":17},"loudness":-17.143990483132292,"gain":0.7953714741107366},"architecture":"WaveNet","config":{"layers":[{"input_size":1,"condition_size":1,"head":{"out_channels":1,"kernel_size":16,"bias":true},"channels":8,"kernel_sizes":[6,6,6,6,6,6,6,6,6,6,6,6,6,6,15,15,6,6,6,6,6,6,6],"dilations":[1,3,7,17,41,101,239,1,3,7,17,41,101,239,1,13,1,3,7,17,41,101,239],"activation":[{"type":"LeakyReLU","negative_slope":0.01},{"type":"LeakyReLU","negative_slope":0.01},{"type":"LeakyReLU","negative_slope":0.01},{"type":"LeakyReLU","negative_slope":0.01},{"type":"LeakyReLU","negative_slope":0.01},{"type":"LeakyReLU","negative_slope":0.01},{"type":"LeakyReLU","negative_slope":0.01},{"type":"LeakyReLU","negative_slope":0.01},{"type":"LeakyReLU","negative_slope":0.01},{"type":"LeakyReLU","negative_slope":0.01},{"type":"LeakyReLU","negative_slope":0.01},{"type":"LeakyReLU","negative_slope":0.01},{"type":"LeakyReLU","negative_slope":0.01},{"type":"LeakyReLU","negative_slope":0.01},{"type":"LeakyReLU","negative_slope":0.01},{"type":"LeakyReLU","negative_slope":0.01},{"type":"LeakyReLU","negative_slope":0.01},{"type":"LeakyReLU","negative_slope":0.01},{"type":"LeakyReLU","negative_slope":0.01},{"type":"LeakyReLU","negative_slope":0.01},{"type":"LeakyReLU","negative_slope":0.01},{"type":"LeakyReLU","negative_slope":0.01},{"type":"LeakyReLU","negative_slope":0.01}],"bottleneck":8,"head1x1":{"active":false,"out_channels":1,"groups":1},"layer1x1":{"active":true,"groups":1},"groups_input":1,"groups_input_mixin":1,"conv_pre_film":{"active":false,"shift":true,"groups":1},"conv_post_film":{"active":false,"shift":true,"groups":1},"input_mixin_pre_film":{"active":false,"shift":true,"groups":1},"input_mixin_post_film":{"active":false,"shift":true,"groups":1},"activation_pre_film":{"active":false,"shift":true,"groups":1},"activation_post_film":{"active":false,"shift":true,"groups":1},"layer1x1_post_film":{"active":false,"shift":true,"groups":1},"head1x1_post_film":{"active":false,"shift":true,"groups":1},"gating_mode":["none","none","none","none","none","none","none","none","none","none","none","none","none","none","none","none","none","none","none","none","none","none","none"],"secondary_activation":[null,null,null,null,null,null,null,null,null,null,null,null,null,null,null,null,null,null,null,null,null,null,null],"slimmable":null}],"head":null,"head_scale":0.009955754974308666},"weights":[0.16808663308620453,-0.0038416488096117973,0.2625196576118469,0.5578919053077698,-0.2259022295475006,-0.2133786678314209,0.000994085450656712,0.8540088534355164,-0.011997466906905174,-0.002955779666081071,-0.016304941847920418,-0.02667461894452572,-0.04004542529582977,-0.009770316071808338,0.005992627702653408,0.005012831185013056,0.006021191366016865,0.005749953910708427,0.006387163419276476,0.0039738924242556095,-0.003798195393756032,0.01986132562160492,-0.03565947711467743,-0.12014013528823853,-0.17506825923919678,-0.007817655801773071,-0.09916248172521591,0.05178188532590866,-0.08879165351390839,-0.19568423926830292,-0.29312682151794434,0.018840057775378227,0.006760121788829565,0.020473718643188477,0.0651388019323349,0.12038420140743256,0.18050752580165863,-0.014816139824688435,0.02935563214123249,0.010189864784479141,0.04710695892572403,0.08229269832372665,0.12843084335327148,0.0030423495918512344,0.007294273003935814,0.006287944968789816,0.006423721555620432,0.00567067414522171,0.005508414003998041,0.005405930802226067,0.029226623475551605,-0.07231980562210083,-0.06420774012804031,-0.12028560787439346,-0.31458598375320435,-0.0033959646243602037,-0.004687338136136532,0.002296377206221223,0.003332179971039295,-0.02567301131784916,0.04048973321914673,-0.0017500983085483313,-0.005854292307049036,-0.005898317322134972,-0.005365427117794752,-0.004778237547725439,-0.006179507821798325,-0.0043787648901343346,-0.10576172918081284,-0.03002012148499489,-0.03885302692651749,-0.08407814800739288,0.18908144533634186,-0.02968347817659378,-0.2425035983324051,-0.0311080664396286,0.03135828301310539,-0.06312049925327301,0.34860992431640625,-0.024021493270993233,0.13635632395744324,0.10975539684295654,-0.01931784301996231,0.10372856259346008,-0.1888301819562912,0.016046011820435524,0.08621586114168167,0.06210511550307274,-0.027341892942786217,0.05457160621881485,-0.15304316580295563,0.0005550739588215947,-0.011138943023979664,-0.010068404488265514,-0.00980882253497839,-0.009832185693085194,-0.008880686946213245,-0.009694158099591732,-0.2868795692920685,-0.14479422569274902,-0.014307022094726562,-0.14847272634506226,0.43165743350982666,0.06281960755586624,0.003479298437014222,-0.003876223461702466,-0.010722450911998749,-0.013824730180203915,0.04099240154027939,0.013836932368576527,-0.002441137097775936,-0.0016995302867144346,-0.0011961589334532619,-0.0005806629196740687,-0.003528356784954667,-0.0010781692108139396,0.03133610263466835,-0.11003836989402771,-0.08011727780103683,-0.10671059042215347,0.21244564652442932,0.07567629218101501,0.08058589696884155,-0.15160316228866577,-0.19878214597702026,-0.04061203822493553,0.3291094899177551,0.1468120515346527,0.03837912902235985,-0.0009019440622068942,0.12122170627117157,0.01380005944520235,-0.17351725697517395,-0.09362222999334335,-0.021731341257691383,0.0458921380341053,0.05520819500088692,0.044343963265419006,-0.17530137300491333,-0.07680797576904297,-0.006899014115333557,-0.006647316738963127,-0.0058242459781467915,-0.0061053987592458725,-0.004732015077024698,-0.006019280292093754,0.061250895261764526,-0.02954700030386448,-0.12879276275634766,-0.1410561352968216,0.35992637276649475,0.14939568936824799,0.0003479673177935183,0.017589963972568512,0.012814847752451897,0.007852214388549328,-0.05118874832987785,0.00214311177842319,-0.003080404130741954,-0.003284445032477379,-0.0032978220842778683,-0.002781618619337678,-0.0005935399676673114,-0.00132428715005517,0.012270479463040829,0.04129517823457718,0.05110722780227661,0.00792460236698389,-0.17519710958003998,0.014956052415072918,-0.008752241730690002,0.08723130077123642,0.1192779615521431,-0.014505457133054733,-0.32273364067077637,0.0218158308416605,-0.004225136712193489,-0.04151451215147972,-0.05413788557052612,-0.009888259693980217,0.15393002331256866,-0.00705463532358408,-0.0038719612639397383,-0.025932472199201584,-0.03494113311171532,-0.011824284680187702,0.1264674961566925,-0.00489227706566453,0.00005556670657824725,0.0008292339043691754,0.0005311454297043383,-0.0005120577407069504,-0.00023676763521507382,-0.0008197461720556021,0.0149921840056777,0.06865464895963669,0.17879602313041687,0.018730666488409042,-0.48371371626853943,0.02887118048965931,-0.028981084004044533,0.03740204870700836,-0.008913862518966198,0.003655809909105301,0.022999897599220276,-0.022402802482247353,0.001772398827597499,0.000354623916791752,0.0028168419376015663,0.0011317977914586663,0.0021839472465217113,0.0026472900062799454,-0.07374856621026993,0.08317594975233078,-0.01928776688873768,0.02194962091743946,0.05526044964790344,-0.04805665463209152,-0.1608157753944397,0.1811986267566681,-0.0246280524879694,0.08055701851844788,0.1368020474910736,-0.07289363443851471,0.063387431204319,-0.07998375594615936,0.010987408459186554,-0.019315162673592567,-0.05295487865805626,0.03575316071510315,0.050204597413539886,-0.06497586518526077,0.008782892487943172,-0.010375016368925571,-0.04220234602689743,0.029075123369693756,-0.0011991106439381838,-0.00112991186324507,-0.001076716580428183,-0.000707967730704695,-0.001044626347720623,-0.002100991318002343,-0.21577423810958862,0.22080126404762268,0.003252624999731779,0.14095942676067352,0.1515156477689743,-0.11234279721975327,-0.007551564835011959,0.0033112780656665564,-0.036818888038396835,0.08499128371477127,0.022203391417860985,-0.042509302496910095,0.00031224943813867867,0.00015065105981193483,0.0012254577595740557,-0.0017133577493950725,0.00018577314040157944,0.002906308975070715,-0.01767153851687908,0.023866621777415276,-0.09469203650951385,0.2452319711446762,0.054528381675481796,-0.14661379158496857,-0.014432240277528763,0.03249865770339966,-0.1844366043806076,0.4394066631793976,0.10000790655612946,-0.26805052161216736,0.015634890645742416,-0.02433878369629383,0.08316732943058014,-0.2184765785932541,-0.04765082523226738,0.12530432641506195,0.012118231505155563,-0.016671068966388702,0.06792002171278,-0.18257737159729004,-0.044783227145671844,0.09654907137155533,0.00041573841008357704,-0.000271977944066748,-0.0009837825782597065,-0.0002639485173858702,0.0017592402873560786,-0.0010798117145895958,-0.03977232798933983,0.06649770587682724,-0.23560485243797302,0.5959500074386597,0.1329083889722824,-0.36026009917259216,0.0009298400836996734,-0.014387357980012894,0.02984795905649662,-0.11035376787185669,-0.03945736587047577,0.04111238569021225,-0.0011306054657325149,-0.0008935767691582441,-0.0019823983311653137,0.0017308946698904037,0.001534530078060925,-0.0024770651943981647,0.007629205007106066,-0.048932865262031555,0.07416887581348419,-0.2803030014038086,-0.09704606980085373,0.1149929016828537,-0.0006476861308328807,-0.06397350877523422,0.11555581539869308,-0.44373515248298645,-0.1656910628080368,0.1872144490480423,-0.007246248424053192,0.024271266534924507,-0.08399239927530289,0.2466178983449936,0.08345167338848114,-0.10714420676231384,-0.01133594661951065,0.023090096190571785,-0.06764575093984604,0.20449227094650269,0.06951673328876495,-0.10580902546644211,-0.0006765462458133698,-0.000522224057931453,-0.002315056975930929,-0.0018904078751802444,-0.0031473080161958933,-0.0016387795330956578,0.03049965761601925,-0.12480456382036209,0.1957719922065735,-0.6049306392669678,-0.16779832541942596,0.2167123705148697,-0.013341328129172325,0.008932617492973804,0.002155001973733306,0.012408371083438396,-0.04955057054758072,-0.003945601172745228,0.006512269843369722,0.0053321607410907745,0.0037754978984594345,0.0037856008857488632,0.0050618392415344715,0.0036219421308487654,0.06822392344474792,0.010267844423651695,0.07154273241758347,-0.016942327842116356,-0.21716241538524628,-0.008036475628614426,0.008481085300445557,0.1304798275232315,0.012993250042200089,-0.09409315884113312,-0.311860054731369,0.008834044449031353,-0.007806764449924231,-0.04258604720234871,-0.06340869516134262,-0.006698103621602058,0.18835587799549103,-0.022028425708413124,0.020850427448749542,-0.0920242890715599,-0.06903523951768875,-0.013660800643265247,0.16028782725334167,0.01728297583758831,0.011011139489710331,0.010842304676771164,0.009129274636507034,0.010187502019107342,0.007911828346550465,0.009067722596228123,0.03437523916363716,-0.00785286258906126,0.14136815071105957,-0.09022403508424759,-0.3040880560874939,-0.016983669251203537,0.16327951848506927,0.023492539301514626,0.0494125597178936,-0.0056711225770413876,-0.014663697220385075,-0.017534036189317703,0.02427678368985653,0.1329336166381836,-0.1407596319913864,0.08566585183143616,0.10863424092531204,0.24246075749397278,-0.33877941966056824,-0.2948969602584839,0.48782140016555786,-0.37832534313201904,0.28578177094459534,-0.08554067462682724,-0.2154928743839264,0.2961050570011139,-0.05913276597857475,0.1039724051952362,0.10494352132081985,0.01785247027873993,-0.186629980802536,-0.01493991632014513,-0.08543239533901215,0.1240113154053688,-0.2754993438720703,-0.1550840139389038,-0.25243356823921204,-0.1807948648929596,0.07663584500551224,0.3944956362247467,0.25090351700782776,0.5956215858459473,0.4100032448768616,0.2138661891222,0.6078803539276123,-0.034670475870370865,0.11506028473377228,0.18583199381828308,0.26051047444343567,-0.37490302324295044,-0.0579044371843338,-0.38224878907203674,0.21681205928325653,-0.16209354996681213,0.17367175221443176,-0.3412669897079468,0.08739347010850906,0.16806119680404663,-0.14015068113803864,-0.054546140134334564,0.002254238585010171,0.298660546541214,0.4551601707935333,0.2056499421596527,0.4662519097328186,-0.35005897283554077,-0.1337791085243225,-0.09522820264101028,0.0208014827221632,-0.0758710503578186,-0.06357148289680481,0.16134721040725708,0.30007249116897583,0.38064250349998474,0.23329132795333862,0.8744762539863586,-0.36990898847579956,-0.3867264986038208,-0.29243534803390503,-0.0181429386138916,0.19766266644001007,0.12562541663646698,0.07571228593587875,0.11182290315628052,-0.17608286440372467,-0.1870821714401245,-0.04556972533464432,0.07426179200410843,-0.1041487529873848,-0.027297038584947586,-0.07013805210590363,-0.0887521281838417,0.046154800802469254,0.13262057304382324,-0.05108725279569626,0.011118276044726372,-0.04398171603679657,0.009016954340040684,-0.10242374986410141,-0.13081559538841248,-0.02183687873184681,-0.07096680253744125,-0.07949499785900116,0.06454233825206757,-0.1563069224357605,0.014396407641470432,0.015238511376082897,0.002879341831430793,-0.09115074574947357,0.0934857651591301,0.014016296714544296,0.23599308729171753,0.011045816354453564,0.05857943743467331,0.01943221129477024,-0.03812530264258385,0.04405604302883148,0.2594633996486664,0.044465821236371994,0.042751140892505646,-0.0059484923258423805,0.007778534200042486,0.14786174893379211,-0.12556874752044678,0.0751199722290039,0.09149603545665741,0.008631250821053982,0.0887298509478569,0.13014255464076996,0.00774286687374115,-0.043973661959171295,0.07101961225271225,0.11723066121339798,0.0075924876146018505,-0.15925325453281403,0.05639338493347168,-0.026236306875944138,-0.00857553817331791,0.01767590641975403,-0.17362353205680847,-0.19324219226837158,0.26100584864616394,0.01818995177745819,-0.0030334044713526964,-0.07183199375867844,0.004910849034786224,-0.08268424868583679,0.1399707794189453,0.004323956556618214,0.019312717020511627,0.037920109927654266,0.07160866260528564,0.019569149240851402,-0.12379421293735504,-0.08760945498943329,0.02488539181649685,-0.06721128523349762,-0.006642146036028862,-0.037976883351802826,-0.12602674961090088,0.0783478394150734,0.10242821276187897,0.05350631847977638,0.02996959164738655,0.054765745997428894,-0.22716322541236877,0.08801759034395218,0.017492586746811867,-0.04510219395160675,-0.08674299716949463,-0.004414610099047422,0.31668004393577576,0.01752285473048687,0.11778049170970917,0.07093334197998047,0.025844406336545944,0.19012992084026337,0.16353553533554077,-0.04389985278248787,0.03285320848226547,0.09596847742795944,0.10435862839221954,-0.08184404671192169,-0.18826057016849518,0.1576894372701645,0.07989831268787384,0.023377904668450356,-0.010948535986244678,-0.11388557404279709,-0.34664979577064514,0.05915289372205734,0.05929598957300186,0.009822206571698189,0.07598244398832321,0.09419608116149902,0.07308780401945114,-0.05944278836250305,0.07998950034379959,-0.031222769990563393,0.10344312340021133,0.05402734503149986,0.03347955271601677,-0.01912728138267994,-0.047296192497015,0.15405219793319702,0.012591719627380371,-0.01057589054107666,0.09345048666000366,0.060476914048194885,-0.06492505222558975,0.07007838785648346,0.05831938609480858,-0.0019694489892572165,0.026979167014360428,-0.006136874668300152,-0.03322465345263481,0.15478217601776123,-0.07597605139017105,0.0640445277094841,-0.06443850696086884,0.05025298893451691,-0.03454158082604408,0.20984826982021332,-0.11694322526454926,0.06895998120307922,-0.17863476276397705,-0.03266777843236923,0.08280256390571594,-0.2518022060394287,-0.04551070183515549,-0.09604739397764206,0.009341749362647533,0.05926502123475075,0.04628186300396919,-0.02031298168003559,0.11868453770875931,0.010807527229189873,0.23078134655952454,-0.09184455871582031,-0.008225980214774609,0.042580991983413696,0.061979517340660095,0.015587175264954567,0.243991881608963,-0.08345656841993332,-0.009693073108792305,0.06434381008148193,-0.001954106381163001,-0.05440855026245117,-0.05814260244369507,-0.04727858677506447,0.13208197057247162,0.014681810513138771,-0.006831811275333166,0.04450947418808937,-0.019240761175751686,0.011283157393336296,0.03477712348103523,-0.015208899974822998,0.05180338770151138,0.017664141952991486,-0.08848560601472855,0.060109786689281464,-0.06587638705968857,0.07413893938064575,0.0767119899392128,-0.06108832731842995,0.23372264206409454,-0.020734459161758423,0.03826351836323738,0.11585904657840729,0.19280797243118286,0.02930552139878273,0.19537724554538727,0.053462304174900055,0.054171111434698105,0.038577765226364136,0.1486508697271347,-0.00674164155498147,-0.24287369847297668,0.15053068101406097,0.0012231589062139392,-0.011531936004757881,0.08648020774126053,-0.08953852206468582,-0.2941916584968567,0.026662029325962067,0.016901029273867607,0.260246217250824,0.12667647004127502,0.17765440046787262,-0.14843378961086273,0.006976396776735783,0.046520933508872986,0.018198268488049507,-0.011050797067582607,-0.0683286264538765,0.143151193857193,0.06465166062116623,0.22267554700374603,0.3086131513118744,0.17607910931110382,0.36248669028282166,-0.28111982345581055,-0.1056491956114769,-0.1861950010061264,-0.12930819392204285,-0.22200457751750946,-0.15934628248214722,-0.12712699174880981,0.005203064065426588,-0.053157906979322433,0.16611051559448242,0.004014614038169384,0.049725472927093506,-0.09346069395542145,-0.03093555010855198,-0.1557226926088333,-0.1710655689239502,-0.03786135092377663,-0.41793766617774963,-0.033488791435956955,0.11770785599946976,0.1119317039847374,0.0400967001914978,0.14750613272190094,0.13961808383464813,0.1910174936056137,0.016382036730647087,-0.15004104375839233,0.09456292539834976,-0.22763681411743164,0.09293068200349808,0.05453446879982948,0.02348765730857849,0.05900450795888901,-0.002539856592193246,0.08023828268051147,-0.05612179636955261,-0.005057354923337698,0.02715403400361538,0.08655203133821487,-0.15145832300186157,0.16725897789001465,-0.06946709752082825,0.11917582899332047,0.08077608793973923,-0.03073340654373169,-0.07059487700462341,-0.00020547208259813488,-0.029882775619626045,0.16184106469154358,-0.04180068150162697,-0.03766872361302376,-0.06591000407934189,0.0055785453878343105,-0.0221267007291317,0.11588454246520996,0.006388720124959946,0.003166784532368183,0.15240414440631866,0.07080227136611938,-0.16464804112911224,-0.19630776345729828,0.10172738134860992,-0.059144873172044754,0.1846732199192047,-0.13897959887981415,-0.13560914993286133,-0.06534051895141602,-0.059629201889038086,-0.1137552410364151,-0.1787000447511673,-0.08089382946491241,-0.039174098521471024,0.14340122044086456,-0.14373944699764252,-0.073446124792099,-0.09830843657255173,-0.08761024475097656,0.08154052495956421,0.16340211033821106,-0.08228466659784317,-0.028125306591391563,-0.00874211173504591,0.044507041573524475,-0.03835909813642502,-0.1943821758031845,-0.04516705870628357,0.02382827177643776,-0.0957406684756279,-0.165743887424469,0.024369359016418457,-0.18629223108291626,0.10634934902191162,-0.10903491079807281,-0.045237455517053604,0.020045235753059387,0.06550655514001846,0.3448311686515808,0.014601219445466995,-0.028042007237672806,-0.02488059364259243,0.08076195418834686,0.0724329724907875,0.37319591641426086,-0.060619059950113297,0.12393427640199661,0.1309017390012741,-0.015150727704167366,-0.11215481907129288,-0.07089174538850784,0.055285729467868805,-0.09161021560430527,0.11375680565834045,-0.062308941036462784,-0.11705193668603897,0.44717487692832947,-0.09261606633663177,0.048258088529109955,-0.05899721756577492,-0.08140850812196732,0.06992585957050323,0.1822403371334076,-0.10820002108812332,0.07548420876264572,0.03238959610462189,0.07492643594741821,0.1982010155916214,0.18931777775287628,0.05237701162695885,0.10723292082548141,-0.028185009956359863,0.1510343998670578,0.11337467283010483,-0.1232626661658287,0.05012577027082443,0.038768500089645386,0.04695797339081764,-0.0670112669467926,-0.09911241382360458,-0.04685201123356819,0.09698419272899628,-0.012691237963736057,0.248565673828125,0.21333710849285126,0.29958677291870117,0.08421705663204193,-0.17533044517040253,-0.1317189782857895,-0.1537303626537323,0.09666314721107483,-0.13563208281993866,0.010227447375655174,0.08241701871156693,-0.06657633185386658,-0.015287629328668118,-0.05601920932531357,0.10781165212392807,-0.0273607037961483,-0.050254907459020615,-0.29746079444885254,-0.04960426315665245,-0.20559872686862946,-0.01583843119442463,0.23502694070339203,-0.07390342652797699,0.11561938375234604,0.058059412986040115,0.048172514885663986,0.2303445041179657,0.3119686543941498,-0.061212509870529175,0.1441643089056015,-0.16230803728103638,0.18670064210891724,-0.05829063802957535,-0.02751474641263485,0.0024301083758473396,-0.27408328652381897,0.027362653985619545,-0.11837603896856308,0.08306670188903809,0.09909289330244064,-0.28361257910728455,0.06893785297870636,0.24404039978981018,-0.2110825628042221,0.41959527134895325,-0.03363203629851341,-0.07182800769805908,0.28249701857566833,0.43587151169776917,-0.3354014754295349,0.14461591839790344,-0.32973262667655945,-0.20149333775043488,-0.2378096729516983,-0.03777807205915451,0.07823226600885391,-0.06645690649747849,0.22219757735729218,-0.042041026055812836,-0.034685492515563965,-0.11011964827775955,-0.1065170168876648,-0.0479668453335762,0.03588194027543068,0.07975002378225327,-0.16164541244506836,-0.11134356260299683,0.20011408627033234,-0.24228394031524658,-0.15187884867191315,0.5795970559120178,-0.10023807734251022,0.08106441795825958,0.31532466411590576,-0.10423163324594498,0.08492147922515869,0.29171672463417053,0.08950848132371902,-0.197852224111557,0.16402356326580048,-0.27045050263404846,0.03524882718920708,0.09409469366073608,-0.06235869228839874,0.29931899905204773,0.23323607444763184,0.08717460930347443,-0.08887052536010742,0.1567206233739853,-0.11889754235744476,-0.19240717589855194,-0.11705891788005829,0.21555693447589874,-0.24540095031261444,0.03349693492054939,0.242248997092247,-0.2903521656990051,-0.24842119216918945,-0.07829110324382782,0.17791514098644257,0.046823084354400635,0.389529287815094,-0.008778760209679604,0.4578331410884857,-0.6220058798789978,0.07717404514551163,-0.06778723746538162,0.30848729610443115,0.08549405634403229,0.18863171339035034,-0.0771198570728302,-0.0760488286614418,-0.19774676859378815,0.2285914421081543,0.007813491858541965,0.006204459350556135,0.06827357411384583,-0.010903170332312584,-0.004989547189325094,-0.0643656775355339,-0.02331816405057907,-0.12996509671211243,-0.003029785817489028,-0.0012601037742570043,-0.0013284820597618818,-0.0009719047811813653,-0.0019888232927769423,-0.005684041418135166,0.0028039095923304558,0.0037874372210353613,0.005865922663360834,0.004936052020639181,0.005493571981787682,0.005372115410864353,-0.0036154233384877443,-0.009877900592982769,-0.008829981088638306,-0.006809883750975132,-0.004855513572692871,-0.009105064906179905,0.005925924051553011,-0.000026170257115154527,0.007214243058115244,-0.005828342400491238,0.009143674746155739,-0.0016723102889955044,-0.00562081066891551,-0.004467821214348078,-0.007330281659960747,-0.0013282212894409895,-0.0005596729461103678,-0.0029041534289717674,0.004777511581778526,0.005946001503616571,0.0051014963537454605,0.0021732349414378405,0.0076557332649827,0.001664457144215703,-0.004261618014425039,0.0030782255344092846,-0.006746080704033375,0.002198224887251854,-0.01118583232164383,-0.004321134649217129,0.004211314022541046,-0.004791599232703447,0.0032609612680971622,-0.005069672595709562,0.002705124206840992,-0.004540455527603626,-0.08440965414047241,0.06413169950246811,-0.005131687503308058,0.1368287354707718,-0.13277582824230194,-0.05761822685599327,0.060375381261110306,0.027734436094760895,0.042575281113386154,-0.010658699087798595,0.1875496506690979,0.0582953542470932,0.07104738801717758,-0.020570984110236168,0.0010226208250969648,-0.11388906091451645,-0.017449602484703064,0.0074426946230232716,-0.014046121388673782,0.059996966272592545,-0.0720766931772232,0.15942734479904175,-0.08493143320083618,0.10022576153278351,-0.01900157704949379,0.057834379374980927,0.016140852123498917,0.03400405868887901,-0.08847177773714066,-0.16554367542266846,0.05180351063609123,-0.08688835799694061,0.23999999463558197,0.00562539417296648,-0.08643559366464615,-0.10789167881011963,-0.034774769097566605,0.12776850163936615,-0.06331632286310196,0.15176230669021606,-0.07430341839790344,0.15597331523895264,-0.11637162417173386,0.1337127983570099,-0.2709077000617981,0.10787904262542725,-0.10411225259304047,0.1827661097049713,0.1175542026758194,0.08741585165262222,0.10136798769235611,0.18372736871242523,-0.021976295858621597,0.03874478116631508,0.07336972653865814,0.07580295205116272,-0.0435977429151535,-0.06718286126852036,-0.053756095468997955,0.024677811190485954,0.0525561086833477,0.1854403018951416,0.1278844028711319,0.06607013195753098,0.22837994992733002,-0.09313751757144928,0.06619322299957275,0.010095641016960144,-0.11020815372467041,-0.04372169449925423,0.0013820223975926638,0.21743808686733246,-0.11104882508516312,0.016627956181764603,0.03580915182828903,0.01176065020263195,0.1420670449733734,0.17945925891399384,0.02317463792860508,-0.07614287734031677,0.06211099773645401,-0.1343882828950882,0.16302908957004547,0.13591141998767853,0.08810712397098541,0.069862000644207,-0.05382427200675011,0.07413943856954575,-0.23968514800071716,0.34384414553642273,-0.17167076468467712,-0.09160968661308289,0.0046075135469436646,0.03603672981262207,-0.11186041682958603,0.16417768597602844,0.11582543700933456,0.0178398247808218,0.0982220247387886,0.053273942321538925,0.07308560609817505,0.028918657451868057,0.04880225658416748,0.07277318090200424,-0.03731973096728325,0.16180658340454102,0.0956207662820816,-0.3745426833629608,0.05884915217757225,0.2709328532218933,0.2025987207889557,0.26191768050193787,0.20994216203689575,0.25318267941474915,-0.02707008458673954,-0.05622817575931549,-0.057643551379442215,-0.232650026679039,-0.016273243352770805,-0.25063782930374146,-0.14591962099075317,0.008669326081871986,-0.18584632873535156,-0.07043060660362244,0.011920332908630371,0.011929810978472233,0.05627533420920372,-0.06394631415605545,-0.15086062252521515,-0.034396275877952576,0.03709324076771736,0.036146070808172226,0.02977670542895794,0.03997088596224785,0.06640245020389557,0.31219926476478577,0.22845737636089325,-0.48590749502182007,0.20304259657859802,0.1532137095928192,0.3062751889228821,0.018601814284920692,0.021916408091783524,-0.403837114572525,0.1461620181798935,0.10737647116184235,0.02725319191813469,-0.018751850351691246,0.19722296297550201,-0.1086336001753807,0.0962335467338562,0.10954128205776215,-0.03968742862343788,0.04539721831679344,0.019947893917560577,0.05282341688871384,0.08860237896442413,0.17290157079696655,0.12738271057605743,0.31004613637924194,0.18281586468219757,-0.06486881524324417,0.021271564066410065,-0.03749154880642891,-0.10515446960926056,0.015584143809974194,-0.02613636665046215,0.06527064740657806,-0.03739553689956665,0.01177932508289814,-0.10778754204511642,-0.11453954875469208,-0.25536900758743286,-0.059534698724746704,0.08739718794822693,0.0684286430478096,0.01871068961918354,0.0035324504133313894,-0.13799510896205902,0.267728328704834,0.06846792250871658,-0.10650567710399628,-0.01924518682062626,-0.14521312713623047,0.1347038298845291,0.25522759556770325,-0.16267599165439606,-0.0856686681509018,0.008821913041174412,-0.04243708774447441,0.20272698998451233,0.17940454185009003,-0.10056918114423752,-0.013680702075362206,0.0375283844769001,-0.13737377524375916,-0.19430659711360931,0.16578371822834015,0.06714805215597153,0.08754997700452805,0.2864660620689392,0.09191972017288208,0.0652928501367569,0.06492594629526138,-0.00581177556887269,0.097833052277565,-0.13477282226085663,-0.1648622304201126,-0.22652962803840637,-0.23801742494106293,0.11631744354963303,0.08760915696620941,0.19239865243434906,0.11178933084011078,0.13682949542999268,-0.2015548050403595,-0.030204730108380318,0.02139882557094097,-0.10223397612571716,-0.16779640316963196,0.1351042240858078,0.16918903589248657,-0.24569039046764374,-0.05670590698719025,-0.16554278135299683,0.04576195031404495,-0.07351303845643997,0.029567914083600044,0.004940333776175976,0.07667256891727448,0.12179553508758545,0.07898195087909698,0.11552078276872635,-0.32129430770874023,0.043988265097141266,0.07031384855508804,0.060367487370967865,0.0030679479241371155,0.010880783200263977,-0.3707360029220581,-0.13938464224338531,-0.09157638996839523,-0.03053777851164341,-0.08772080391645432,-0.04720725864171982,0.32830819487571716,0.049163635820150375,0.012361668981611729,-0.012320379726588726,0.16664151847362518,0.08174251019954681,0.30773869156837463,0.09792587906122208,0.05919443815946579,0.11504904180765152,0.2790665924549103,0.005901395808905363,-0.38546013832092285,0.0199951883405447,0.1302616149187088,0.10850749909877777,0.05217808485031128,0.2933056652545929,-0.21255581080913544,-0.03176258131861687,0.0037220045924186707,0.025537904351949692,-0.1465476006269455,-0.07151490449905396,0.2509829103946686,-0.18266433477401733,-0.06016363203525543,-0.15085947513580322,0.0657796636223793,-0.20923639833927155,-0.053955696523189545,0.021880801767110825,0.18727493286132812,0.21624939143657684,0.0919736698269844,0.3103071451187134,-0.0923394113779068,0.049180399626493454,0.14999961853027344,0.17995256185531616,-0.030475949868559837,0.008593698032200336,-0.25964581966400146,-0.06340695172548294,-0.11718057096004486,-0.06003500893712044,-0.09316974878311157,-0.022959455847740173,0.20507609844207764,0.013560174964368343,0.036175698041915894,0.13718651235103607,-0.0017584996530786157,-0.1341416835784912,0.0926760658621788,-0.03201640024781227,0.048315685242414474,-0.006218371447175741,0.014796203933656216,0.04004606232047081,-0.09620088338851929,-0.019027870148420334,0.009134241379797459,0.01408827118575573,-0.056500911712646484,0.02230807952582836,0.09977399557828903,0.017274774610996246,0.04344624653458595,-0.040154729038476944,0.16898998618125916,-0.06054354086518288,-0.055058907717466354,-0.11384832113981247,-0.06031530350446701,-0.05683429166674614,-0.0209437757730484,0.06541361659765244,0.0933598056435585,-0.00203129299916327,0.02340625785291195,-0.026276813820004463,-0.053611624985933304,0.023352691903710365,-0.03730553761124611,0.16257111728191376,0.07618270814418793,-0.0027643274515867233,-0.21194301545619965,-0.22795237600803375,-0.08932126313447952,-0.013637369498610497,0.01240108348429203,-0.05862124264240265,-0.06133522093296051,-0.052345238626003265,0.04181523248553276,0.26659727096557617,-0.07159378379583359,-0.005642879754304886,-0.03612745180726051,0.4433504641056061,-0.24617719650268555,-0.012893620878458023,-0.7358701825141907,0.01959468238055706,0.17648448050022125,-0.0002094037045026198,-0.2025892436504364,-0.06689941883087158,0.05380038544535637,0.5041965246200562,0.04880934953689575,-0.0503402017056942,-0.28988131880760193,0.0005399301298893988,-0.012605343945324421,-0.056591909378767014,-0.008944272063672543,-0.25630661845207214,-0.25508981943130493,-0.3666709065437317,-0.3249109983444214,0.0003489109221845865,-0.11639127880334854,0.06400778144598007,0.20670074224472046,0.23064061999320984,-0.04836684465408325,0.16212210059165955,-0.12359075248241425,-0.000022178510334924795,-0.12869131565093994,-0.23289214074611664,0.08330820500850677,0.04766016826033592,-0.17791375517845154,-0.32405513525009155,-0.16538839042186737,-0.00037602026714012027,-0.11000733077526093,0.027805017307400703,0.04057007282972336,-0.012699643149971962,0.07409190386533737,-0.08743608742952347,0.023944750428199768,-0.0001950836303876713,0.24949215352535248,-0.16497716307640076,-0.042670369148254395,-0.1362762600183487,-0.008233960717916489,0.2677015960216522,-0.08134745061397552,0.0004170035826973617,0.21036817133426666,-0.016373129561543465,0.24363265931606293,0.12794485688209534,-0.16625544428825378,-0.27437469363212585,-0.08465741574764252,-0.0004442865611054003,-0.15297044813632965,-0.27526289224624634,0.09710075706243515,-0.2765595614910126,0.020853281021118164,0.2146485149860382,0.14770397543907166,0.020323893055319786,0.10727598518133163,-0.05093613266944885,0.10146842896938324,0.03759179264307022,-0.059614330530166626,0.09471609443426132,-0.020987501367926598,0.08224714547395706,0.07386437058448792,0.004260536283254623,-0.022700535133481026,0.04210076481103897,-0.18344609439373016,0.055276740342378616,0.0002723944198805839,0.023647846654057503,0.10622046887874603,0.18325451016426086,0.08600150048732758,-0.005056193098425865,0.10949289053678513,0.0191084835678339,0.10391850024461746,0.08960648626089096,0.020083146169781685,0.010699599049985409,0.011101351119577885,0.05659763142466545,0.0365525558590889,-0.06870435178279877,0.34653806686401367,0.06399901211261749,-0.02797193080186844,0.03880012407898903,0.04560988396406174,-0.016693467274308205,0.08026228100061417,-0.059720221906900406,-0.04314369708299637,-0.06112831458449364,-0.13360914587974548,-0.16117078065872192,-0.4280967116355896,0.008573032915592194,-0.020408598706126213,0.018333232030272484,-0.04376183822751045,-0.10172969102859497,0.1828298419713974,-0.06441439688205719,-0.083708256483078,-0.0879729762673378,-0.12868942320346832,-0.1791793256998062,0.4325103461742401,0.02593325451016426,0.020552203059196472,0.06896699965000153,0.0239651408046484,0.00863178912550211,0.14717623591423035,0.1516280621290207,0.1305430680513382,0.1563703715801239,0.3261997103691101,0.36384281516075134,0.17200236022472382,-0.010308235883712769,0.021954616531729698,0.03667403385043144,-0.019957810640335083,-0.05466178432106972,0.029433786869049072,0.006782101467251778,-0.014145402237772942,-0.0014611495425924659,-0.015486754477024078,0.08879577368497849,-0.017959002405405045,0.040292754769325256,-0.014662902802228928,-0.005069073289632797,-0.09537940472364426,-0.21346017718315125,-0.21912364661693573,-0.15046440064907074,-0.028415292501449585,0.0069758533500134945,0.09273382276296616,0.07329045981168747,-0.052095476537942886,0.008342891931533813,-0.024938257411122322,-0.00017361815844196826,0.09800274670124054,0.10370814055204391,-0.12601563334465027,-0.17669172585010529,-0.06511261314153671,-0.041152410209178925,-0.013475279323756695,0.1357782930135727,-0.058202993124723434,0.04636611044406891,0.043453287333250046,0.02275129221379757,0.10541519522666931,0.2659960985183716,-0.03679986298084259,0.0196109376847744,0.0459592379629612,0.07228538393974304,0.1434171050786972,0.13026189804077148,-0.00740031385794282,-0.047204796224832535,-0.03078611008822918,-0.0018496267730370164,-0.0708170011639595,-0.08682753890752792,0.21792656183242798,0.03497791662812233,0.002077978802844882,0.029093164950609207,-0.012718627229332924,0.010500839911401272,0.35872724652290344,0.011461309157311916,-0.003998786211013794,0.012407096102833748,0.11771275848150253,0.08520541340112686,-0.2034831941127777,-0.039206769317388535,-0.013288261368870735,-0.055667586624622345,-0.1838432103395462,0.015333103016018867,-0.027474863454699516,0.0015104542253538966,0.0024791243486106396,-0.03149281442165375,0.017424240708351135,0.0002899971150327474,0.4157203137874603,-0.11505405604839325,-0.11340685933828354,-0.1719575673341751,-0.17315657436847687,-0.28275078535079956,0.290600061416626,-0.07129756361246109,-0.035637859255075455,0.03567131608724594,0.018048997968435287,-0.06387171149253845,-0.00917931366711855,-0.01582687348127365,-0.0019282278371974826,-0.033447179943323135,-0.003919388633221388,0.05257812514901161,-0.12937243282794952,-0.007709059398621321,-0.04164401441812515,0.030194008722901344,-0.11685898154973984,-0.05944928899407387,-0.03992738947272301,0.08851822465658188,0.05068017169833183,0.025528090074658394,0.04241316765546799,0.2949569523334503,-0.04010869935154915,-0.08948058634996414,-0.0007206578156910837,-0.0005523371510207653,0.07959076017141342,0.010057372972369194,0.05164821073412895,0.04810786247253418,-0.04599224776029587,-0.034598927944898605,0.04597238451242447,-0.07150895148515701,0.018988966941833496,-0.0960521474480629,-0.04333461448550224,-0.01698354259133339,-0.05297676846385002,-0.014936801046133041,-0.19778455793857574,0.22963601350784302,0.08866722881793976,-0.026352737098932266,0.01627001166343689,0.21942724287509918,0.091532863676548,-0.05443379282951355,-0.13438184559345245,-0.017830954864621162,-0.053806520998477936,-0.19586417078971863,0.08912520110607147,0.11895863711833954,-0.02632218971848488,-0.0334024652838707,-0.0154990553855896,-0.02645229361951351,0.2775938808917999,0.01418157760053873,0.0034186358097940683,-0.014941518194973469,0.07390512526035309,0.07694602012634277,-0.21733762323856354,0.005455092526972294,0.050865769386291504,0.023149758577346802,0.07854257524013519,0.02187671884894371,-0.11385827511548996,0.0878157839179039,0.04587321728467941,0.008255846798419952,0.028850965201854706,-0.1044079065322876,0.16497653722763062,0.1309141367673874,0.1033877432346344,-0.10874682664871216,0.1012258231639862,0.007301966659724712,-0.2193688005208969,0.011260912753641605,0.017589878290891647,0.03698438033461571,0.0478752925992012,-0.046461496502161026,0.08657293021678925,0.041198499500751495,0.12474632263183594,0.12311781197786331,0.10294338315725327,0.1441209763288498,-0.4405650198459625,0.049684181809425354,0.0387096032500267,-0.028032289817929268,-0.18139298260211945,-0.06640895456075668,0.2448391169309616,-0.14097093045711517,-0.0433773398399353,-0.026143459603190422,-0.052058640867471695,-0.0261998288333416,0.32053855061531067,0.08984237164258957,0.19205409288406372,-0.07956896722316742,-0.0781620517373085,-0.08360042423009872,-0.11490245908498764,-0.0029198392294347286,0.049407847225666046,0.031460508704185486,0.028587106615304947,-0.07469835132360458,0.014209731481969357,-0.075557641685009,-0.0698690116405487,0.001998160034418106,0.03028283268213272,0.03717585280537605,0.056549783796072006,0.0791969746351242,0.001268112100660801,0.05478394404053688,0.13288146257400513,0.09896527975797653,0.047628968954086304,-0.011117284186184406,0.08892960846424103,0.1088898554444313,0.052491445094347,-0.21298237144947052,-0.1652689427137375,0.2143474668264389,0.12700235843658447,0.08811572194099426,0.14399293065071106,-0.07280516624450684,-0.5225377082824707,0.04288008436560631,0.029083605855703354,0.02425934374332428,-0.031418297439813614,-0.2757094204425812,0.14265824854373932,0.0034783834125846624,0.02520632930099964,0.005359902512282133,0.026596030220389366,-0.07158704847097397,0.04065144807100296,-0.023224852979183197,-0.05784709379076958,-0.018468521535396576,-0.05046335980296135,0.0987173393368721,-0.04097095504403114,0.012719636783003807,-0.0012044021859765053,0.015657026320695877,-0.010264779441058636,0.05608023703098297,-0.23576314747333527,-0.019253607839345932,-0.01557785365730524,-0.018697721883654594,0.0010923037771135569,-0.3369767665863037,0.13143537938594818,0.007135508116334677,0.12896238267421722,0.11623463034629822,0.2829425632953644,0.2569293677806854,-0.062094125896692276,-0.015409625135362148,0.012489695101976395,0.012621811591088772,0.09007377922534943,-0.03274155035614967,-0.38890355825424194,-0.020263860002160072,0.05672704428434372,0.15569588541984558,0.13282716274261475,0.3233463764190674,-0.20457284152507782,-0.018571242690086365,-0.05311273783445358,-0.011186993680894375,0.15041305124759674,0.18766959011554718,-0.2509828805923462,0.08086969703435898,0.002308724680915475,0.047940630465745926,0.03864482417702675,0.03291219845414162,0.2799156904220581,-0.0037956032902002335,-0.1071113646030426,-0.05369783192873001,-0.08177369087934494,-0.20452727377414703,-0.23555415868759155,0.0015609831316396594,0.015625078231096268,0.01709594763815403,0.06585261225700378,0.13475963473320007,0.5362077951431274,-0.05920341983437538,-0.0990275889635086,-0.06876390427350998,0.06855296343564987,0.2666341960430145,-0.25762686133384705,-0.07048000395298004,-0.13250020146369934,-0.14704109728336334,-0.14959274232387543,-0.10208555310964584,-0.07120153307914734,-0.04508749395608902,-0.08517605811357498,-0.12536080181598663,-0.062364187091588974,0.05069011449813843,0.3649657070636749,-0.1190638318657875,-0.07470040768384933,-0.16584770381450653,-0.20735862851142883,-0.14272958040237427,0.3438863456249237,-0.15918877720832825,0.1394537091255188,0.1382354348897934,-0.15652425587177277,0.12212441116571426,-0.0837017223238945,0.09875155985355377,-0.1758536398410797,0.382381796836853,0.10767203569412231,1.0423705577850342,0.07884075492620468,0.3180164396762848,-0.15917257964611053,-0.5778379440307617,0.806041419506073,0.22358937561511993,0.31116002798080444,-0.2852018177509308,-0.1661309450864792,-0.008572401478886604,0.19835038483142853,0.16533423960208893,0.09526021778583527,-0.014383642934262753,0.024069134145975113,0.22049859166145325,-0.26939940452575684,-0.29704806208610535,-0.45982852578163147,-0.27572372555732727,0.10835464298725128,-0.05721395090222359,0.08561111241579056,-0.06478656083345413,0.24991580843925476,0.02154555357992649,-0.2357659637928009,-0.12708958983421326,0.4691799581050873,-0.286594957113266,0.00949115864932537,0.22052152454853058,-0.01729179173707962,-0.14628766477108002,0.09670837968587875,-0.15472248196601868,-0.3361533284187317,0.022586164996027946,0.255707710981369,0.004720181692391634,0.13094519078731537,-0.12686321139335632,0.00963552575558424,0.1413462907075882,0.15700440108776093,0.32752829790115356,-0.3264227509498596,0.0914398580789566,0.015746228396892548,0.2649562358856201,-0.09456045180559158,-0.10066090524196625,0.38086366653442383,-0.2380361706018448,0.08680763095617294,0.3094139099121094,-0.11450045555830002,0.052633628249168396,0.23872575163841248,-0.03503679856657982,-0.018126916140317917,-0.23409566283226013,0.41067686676979065,0.10952972620725632,0.15945938229560852,0.21154440939426422,0.006615900434553623,0.04517066106200218,-0.2483852058649063,0.021286962553858757,-0.017985062673687935,0.050388988107442856,0.04162512347102165,-0.06867711246013641,-0.022165557369589806,-0.13282231986522675,0.09593014419078827,0.043690361082553864,0.00653171818703413,-0.005912971217185259,-0.05058472603559494,-0.06968359649181366,0.2244376242160797,-0.008576502092182636,-0.020028920844197273,-0.027170371264219284,-0.05394328758120537,-0.1971345990896225,-0.25737375020980835,0.009264444001019001,-0.0028632539324462414,-0.009285868145525455,-0.008221525698900223,-0.12143563479185104,-0.12815915048122406,-0.02545999549329281,-0.0019999081268906593,-0.00723548186942935,-0.0100169125944376,0.0776497945189476,-0.3166109025478363,-0.05445580929517746,0.011872133240103722,0.02372385375201702,0.02405523881316185,0.1050017848610878,0.2413945198059082,0.010298601351678371,0.015089336782693863,-0.010742426849901676,-0.05347277596592903,-0.04756959527730942,-0.15480820834636688,0.010247212834656239,0.0019775722175836563,-0.0009905403712764382,0.017064403742551804,0.10852351784706116,-0.6507799029350281,0.03420020267367363,0.06403236836194992,0.0993306040763855,0.08765819668769836,0.15143698453903198,-0.023588644340634346,0.009471450932323933,-0.00068278779508546,-0.026995940133929253,0.0193108469247818,-0.021269934251904488,0.14517492055892944,0.01074021402746439,-0.0164694432169199,-0.03885216638445854,0.020628387108445168,-0.017050672322511673,-0.12411168962717056,-0.0016082297079265118,-0.004200471565127373,0.01936786063015461,0.003197584068402648,0.033933572471141815,-0.0366007499396801,-0.007787428796291351,-0.04436071217060089,-0.010100486688315868,-0.06947080790996552,-0.10234357416629791,-0.016477974131703377,0.00651203840970993,-0.03109615668654442,-0.02534141018986702,0.029190396890044212,0.050988152623176575,0.04254810884594917,0.015024987049400806,0.05391184985637665,0.034097347408533096,0.009714411571621895,-0.05713857337832451,-0.059716686606407166,0.011930646374821663,0.02046377956867218,0.009668604470789433,0.019980628043413162,0.05556507036089897,-0.04650160297751427,-0.06170789524912834,-0.050220996141433716,-0.005458905827254057,-0.04711903631687164,-0.0020536791998893023,-0.042087916284799576,0.00545023288577795,0.054867345839738846,0.1192493662238121,0.0374869666993618,0.11069038510322571,-0.2618718147277832,-0.010111375711858273,0.025001192465424538,0.04841935262084007,0.0689966157078743,0.22148749232292175,0.4126165211200714,-0.04006814956665039,-0.044840969145298004,-0.1561318337917328,-0.08009035140275955,-0.03245281055569649,-0.4097052216529846,-0.03865250572562218,-0.03850141912698746,-0.04207342863082886,-0.033182915300130844,0.0255324337631464,0.3984268009662628,-0.05624880641698837,-0.003438372164964676,0.015545976348221302,0.006148193031549454,0.004957943223416805,-0.236123725771904,-0.005099634174257517,-0.021864011883735657,0.02093835175037384,-0.028785256668925285,0.13979753851890564,-0.0030543210450559855,0.028950035572052002,0.058490902185440063,0.0648382306098938,0.011216865852475166,-0.20513349771499634,0.11533323675394058,0.02599632553756237,0.03233608603477478,-0.009161326102912426,-0.033203862607479095,-0.1335120052099228,0.32184579968452454,-0.025790678337216377,0.018926288932561874,-0.030499190092086792,-0.09324105829000473,0.025733191519975662,-0.26287364959716797,-0.12986260652542114,-0.06950455158948898,-0.12475406378507614,-0.18494069576263428,-0.05731579661369324,0.09756607562303543,-0.08949162811040878,-0.02261309139430523,-0.0638708770275116,-0.04422667622566223,-0.16707691550254822,-0.03119295835494995,0.06356015056371689,-0.06937262415885925,0.030909759923815727,-0.025375908240675926,0.024217454716563225,0.1243700385093689,-0.0179371889680624,-0.02278750017285347,0.06122978404164314,0.11938605457544327,0.13811816275119781,0.0766654908657074,0.08807376027107239,0.17177170515060425,0.11712804436683655,0.21100682020187378,0.2673586308956146,0.23132556676864624,0.05997864902019501,0.08759026229381561,0.10409962385892868,0.18376250565052032,0.15139177441596985,0.11566139757633209,0.028681818395853043,0.01683419942855835,0.026647470891475677,-0.032834094017744064,-0.11500287055969238,-0.009475426748394966,-0.01665559783577919,-0.02203923463821411,0.009330515749752522,-0.023399531841278076,0.04894258826971054,0.31039559841156006,-0.03829149529337883,-0.04947023093700409,-0.09697604179382324,-0.07991835474967957,-0.07697142660617828,-0.2066287100315094,0.015411810018122196,0.03057108260691166,0.015586757101118565,0.003018950577825308,0.06074609234929085,0.032395102083683014,0.016129180788993835,0.005796442739665508,0.01419929787516594,0.06615490466356277,0.02257082797586918,-0.4324408769607544,-0.0322607159614563,-0.06815678626298904,-0.03411504253745079,0.05890372768044472,0.018384121358394623,0.21458494663238525,0.002453521126881242,0.00580439530313015,0.05804527550935745,-0.006193513981997967,-0.006663335952907801,-0.12971511483192444,0.0015018220292404294,0.002294396748766303,0.012089317664504051,0.014364337548613548,0.035500165075063705,-0.36477595567703247,-0.0009609394473955035,0.04328535497188568,0.15391355752944946,0.10636891424655914,0.43128010630607605,-0.20999307930469513,0.0004283369053155184,-0.04615722969174385,-0.014895332977175713,-0.057648979127407074,0.12002306431531906,-0.2968778610229492,-0.016454508528113365,-0.004877723753452301,0.008576450869441032,0.10891031473875046,0.059602200984954834,0.18163855373859406,0.007220814004540443,-0.02309131994843483,0.033037275075912476,-0.007713139057159424,-0.1330261081457138,-0.2854241132736206,0.03229555860161781,0.027342945337295532,0.06045765429735184,0.03717217221856117,0.0851610004901886,0.21849988400936127,0.01599852554500103,-0.03519660606980324,0.03778070583939552,0.14068645238876343,-0.024465536698698997,-0.17453411221504211,-0.01659245602786541,0.0017587029142305255,-0.05027368292212486,-0.09184304624795914,-0.0740937888622284,0.03492307290434837,-0.0003937271249014884,-0.03696834295988083,-0.014362604357302189,-0.06329726427793503,-0.05124018341302872,0.07264652103185654,-0.05662532523274422,-0.06518884003162384,-0.10335886478424072,-0.07261208444833755,-0.11869975924491882,0.1613236367702484,-0.007829103618860245,0.04272101819515228,0.0027196749579161406,-0.1331683099269867,0.04307825490832329,-0.27132976055145264,0.048532694578170776,0.05034726858139038,0.05022585019469261,0.046846166253089905,-0.032849207520484924,-0.1647016406059265,0.01850207708775997,-0.05856985226273537,-0.003931418992578983,-0.021423276513814926,0.09255114942789078,-0.1988556981086731,0.018618807196617126,-0.007074429653584957,-0.043378427624702454,-0.07351915538311005,0.035721924155950546,0.02936432510614395,0.1061810627579689,0.029945502057671547,-0.0503278486430645,-0.013551118783652782,0.10584668070077896,-0.14988523721694946,-0.0682678148150444,0.0056871091946959496,0.03614179790019989,0.10543365776538849,0.29101282358169556,0.16783562302589417,0.05030642822384834,0.04306836053729057,0.03575986251235008,-0.05369364842772484,-0.02065318077802658,-0.09371908009052277,-0.08501666784286499,-0.11871376633644104,-0.15303292870521545,-0.24199402332305908,-0.2985379695892334,0.18989214301109314,0.03352747857570648,0.004745082464069128,0.007116345223039389,-0.02099248580634594,-0.12579751014709473,0.0680670291185379,-0.029327252879738808,-0.0646151751279831,-0.009407076984643936,-0.17682567238807678,-0.13008339703083038,-0.33358484506607056,-0.014572602696716785,-0.030824055895209312,-0.053490523248910904,0.0068407063372433186,-0.2412123680114746,-0.20787401497364044,-0.01714443415403366,-0.020809486508369446,-0.05512874573469162,0.0974234938621521,0.08906342834234238,-0.24733957648277283,-0.06664103269577026,-0.01977003552019596,-0.007135353516787291,0.05526052787899971,0.08431760966777802,0.2188495248556137,0.05174047499895096,0.038969896733760834,0.028006549924612045,-0.06729742884635925,-0.17660826444625854,0.026593564078211784,0.022388478741049767,0.0555315762758255,0.05277819186449051,0.07816224545240402,0.16288943588733673,-0.37370845675468445,0.003985542804002762,0.05170019343495369,0.06871256977319717,0.10103140771389008,0.25436750054359436,-0.18831771612167358,-0.01809215173125267,0.02960079535841942,0.11798731982707977,-0.09232491254806519,0.12080581486225128,0.12144657969474792,0.060527510941028595,-0.27408555150032043,-0.17153260111808777,-0.06806235760450363,0.22730368375778198,-0.03194861114025116,-0.551922619342804,0.2837774157524109,0.04484947398304939,-0.3119582533836365,0.12378082424402237,-0.0027090441435575485,-0.38371196389198303,0.27285248041152954,0.05566522851586342,0.13224326074123383,-0.17366671562194824,-0.07405909150838852,-0.17180779576301575,0.06939327716827393,0.16728508472442627,-0.21331055462360382,-0.3276888132095337,-0.04782712832093239,0.3589591383934021,0.25544196367263794,0.09134800732135773,0.02889607660472393,-0.03647128492593765,0.051008593291044235,0.17120026051998138,0.0606255941092968,0.09543325752019882,0.20760776102542877,-0.05270008742809296,0.09264259040355682,0.04107498377561569,-0.07667012512683868,-0.04011090099811554,0.2084895372390747,-0.0015608217800036073,0.2124599665403366,0.05477992072701454,-0.04917699471116066,-0.04267308488488197,-0.3623356819152832,-0.018258079886436462,0.06725309789180756,0.24770596623420715,-0.11453244090080261,0.2548074424266815,-0.09308455884456635,0.07474886626005173,-0.21835224330425262,0.24877861142158508,0.14797629415988922,0.16282685101032257,-0.3756851553916931,0.23372775316238403,-0.03044803999364376,0.3151576519012451,-0.07382924109697342,0.08736294507980347,0.3060872256755829,0.2039829045534134,0.20673377811908722,-0.18489359319210052,-0.0281533095985651,-0.24526424705982208,-0.13612690567970276,-0.1464346945285797,0.12285283952951431,-0.07794360816478729,0.2900684177875519,-0.17949695885181427,0.13429735600948334,-0.11373381316661835,-0.09136655181646347,-0.01807461492717266,0.015721656382083893,-0.05850532650947571,0.07018052786588669,0.03361579030752182,-0.04949569329619408,-0.025447631254792213,-0.0044252690859138966,-0.05626314878463745,0.04930002614855766,0.10447423905134201,-0.016574880108237267,0.01964784786105156,-0.05815141648054123,0.13937556743621826,-0.1227649375796318,-0.03530259057879448,-0.035731241106987,-0.14262805879116058,-0.019798120483756065,0.0201193168759346,0.12803414463996887,0.01283060573041439,0.018726665526628494,0.025311868637800217,-0.0045855119824409485,-0.018170516937971115,-0.11614083498716354,0.05517418682575226,0.09797870367765427,-0.01069531962275505,-0.04255076125264168,0.11400077491998672,0.06170908734202385,0.05806721746921539,-0.053100474178791046,-0.0518113374710083,0.038703203201293945,0.006992470007389784,0.13327781856060028,0.05542498454451561,-0.031924422830343246,0.06467685103416443,-0.0454489029943943,-0.13245253264904022,-0.24418728053569794,-0.19809184968471527,-0.07380644977092743,-0.09118890762329102,0.02174675278365612,0.01535590086132288,0.11703217774629593,0.023654378950595856,0.028360769152641296,0.014269712381064892,0.04573255404829979,0.043862853199243546,0.23031795024871826,0.035371966660022736,0.04411616548895836,0.0332164503633976,0.038384389132261276,0.004401462152600288,-0.20316781103610992,0.026277359575033188,0.026204822584986687,0.01279626414179802,0.0189875066280365,-0.002080796519294381,0.15260782837867737,-0.000017155658497358672,-0.009073668159544468,0.0011696959845721722,0.006743955425918102,0.026690782979130745,-0.1273699849843979,0.016930148005485535,0.024474626407027245,0.033681970089673996,0.0037549594417214394,0.04071047157049179,0.40615662932395935,0.002794138388708234,0.014714762568473816,0.012674625031650066,0.009031521156430244,0.038890305906534195,0.04301951453089714,-0.0019460036419332027,0.005909626372158527,0.005826999433338642,-0.0003086944343522191,0.03689277917146683,0.09625031054019928,-0.04446636512875557,-0.023657385259866714,-0.04626821354031563,-0.056007590144872665,-0.02163800224661827,-0.5274327993392944,-0.02369346283376217,0.004800292197614908,-0.029739530757069588,-0.04484669491648674,-0.07084298133850098,-0.11587710678577423,-0.011696340516209602,-0.01344534382224083,-0.0447784923017025,-0.09821575880050659,-0.2884964048862457,-0.10512398183345795,0.00004720035940408707,0.005645306780934334,-0.004752477630972862,-0.017065279185771942,-0.03295004740357399,-0.5024604201316833,0.004887844435870647,0.009716073982417583,0.013886851258575916,0.039547357708215714,0.09219357371330261,-0.0883495956659317,-0.0071412608958780766,-0.04279572144150734,-0.09156426042318344,-0.032146744430065155,-0.18596811592578888,-0.16895873844623566,-0.008639467880129814,0.009990892373025417,0.060382187366485596,0.03394339606165886,0.062322333455085754,-0.1768733561038971,-0.006653391290456057,-0.009944619610905647,-0.006248999387025833,0.0011163030285388231,0.0733327567577362,-0.024147240445017815,-0.01003399956971407,0.015266300179064274,0.041825469583272934,0.09606710821390152,0.31356266140937805,-0.09264470636844635,-0.018367601558566093,-0.018550297245383263,-0.004223840776830912,-0.08721353113651276,-0.004955869168043137,-0.04146941378712654,-0.03661360591650009,-0.05244626849889755,-0.05403285101056099,-0.09598695486783981,0.021641621366143227,-0.15732446312904358,-0.04969542846083641,-0.04493721202015877,-0.1217101439833641,-0.0039804475381970406,-0.09403587132692337,-0.05145057663321495,0.006454092916101217,0.05962149426341057,0.015653999522328377,0.05086563900113106,0.03608906269073486,-0.09436915069818497,-0.06239378824830055,-0.003156218444928527,-0.0035096884239465,0.021804045885801315,-0.06644891947507858,0.07185737043619156,-0.011135837063193321,-0.03742185980081558,-0.0023600896820425987,0.08154461532831192,0.04183071851730347,-0.0032179185654968023,0.01548894215375185,-0.0056335218250751495,-0.053189583122730255,0.0012592695420607924,0.044893424957990646,0.08811265230178833,0.03955093026161194,0.010397783480584621,0.000019653536583064124,0.047576840966939926,-0.08750247210264206,-0.0921148732304573,0.05819026753306389,-0.03194588050246239,-0.03810667246580124,0.041323304176330566,-0.08147815614938736,-0.16707313060760498,0.013620906509459019,0.1326616108417511,0.10534306615591049,-0.011596831493079662,0.12368439137935638,-0.17706193029880524,-0.09976226836442947,-0.03653419762849808,-0.022898295894265175,-0.03138074651360512,-0.009568355977535248,0.0685713142156601,0.008977570571005344,-0.10320927947759628,-0.08013242483139038,-0.12528492510318756,0.04870808124542236,0.017153039574623108,0.07653303444385529,-0.016355307772755623,0.1732829064130783,-0.01806209236383438,0.15350139141082764,0.14576785266399384,0.019808940589427948,0.03780730068683624,0.014010288752615452,0.006381220184266567,0.08194417506456375,0.0984925776720047,-0.06625896692276001,-0.1873967945575714,0.09710320830345154,-0.11041190475225449,-0.1343861222267151,0.015705129131674767,-0.016659747809171677,-0.0759514644742012,-0.19295810163021088,-0.21301303803920746,-0.14211010932922363,0.1189117580652237,0.010071050375699997,0.011046245694160461,-0.057530444115400314,-0.06313996016979218,-0.01287875883281231,-0.15578702092170715,0.02589455246925354,0.039453137665987015,-0.0036287850234657526,0.0516156330704689,0.06213827058672905,0.18684950470924377,-0.05941607803106308,-0.022612322121858597,-0.04501757398247719,-0.06003880128264427,-0.0022239810787141323,-0.04144151508808136,-0.059988055378198624,-0.08325191587209702,-0.04038473591208458,-0.04865161329507828,-0.04576586186885834,0.048123300075531006,0.04595370590686798,-0.048531655222177505,-0.025840092450380325,0.09098982810974121,0.13147863745689392,-0.003903163131326437,0.038020145148038864,0.0002419974480289966,-0.034465864300727844,-0.02282264642417431,-0.03385351598262787,0.1457333117723465,0.02131820283830166,0.0406845286488533,0.05972006916999817,0.0073225428350269794,0.01837584748864174,0.3065394163131714,0.0048573496751487255,-0.05434967949986458,-0.05828678235411644,-0.05167943239212036,-0.05961143597960472,-0.021353254094719887,0.0055648526176810265,0.0028115143068134785,0.005925405770540237,0.0015967694343999028,0.0018356253858655691,0.0029972312040627003,0.008078222163021564,0.0038577476516366005,0.004535953979939222,0.00476048095151782,0.009586128406226635,0.009933091700077057,0.0005496942903846502,-0.000378305179765448,-0.003961949609220028,-0.011857105419039726,0.0010431160917505622,-0.005562854930758476,0.0029914001934230328,0.0049792504869401455,0.0015326476423069835,0.0026828767731785774,0.004806495271623135,0.009343307465314865,0.000049491434765513986,0.0025409513618797064,0.002140666823834181,0.00020993514044675976,0.002971554407849908,0.0015693980967625976,-0.00738893449306488,-0.0033483474981039762,-0.006021562963724136,-0.004226965364068747,-0.0041793761774897575,-0.00635598273947835,-0.006303985137492418,0.0023483361583203077,-0.000837463594507426,-0.006248425226658583,-0.00292052305303514,-0.001054937019944191,-0.0013785292394459248,-0.003092669416218996,-0.0053779189474880695,0.001911088707856834,-0.002768187550827861,-0.008354656398296356,0.0044037229381501675,-0.010825106874108315,-0.0054154968820512295,-0.028071468695998192,-0.04718382656574249,0.1870940923690796,-0.008324814960360527,-0.014456045813858509,-0.007215266115963459,-0.003583411453291774,-0.02256525121629238,-0.4211893379688263,-0.008629249408841133,-0.003340283641591668,0.0025799183640629053,0.012354235164821148,0.016554348170757294,0.3565441370010376,0.0046082125045359135,-0.002852256875485182,